{"learner":{"attributes":{"best_iteration":"7","best_score":"0.1922545536514076"},"feature_names":["volatility","move_ease","trap_susceptibility","king_exposure","castling_status","defending_pieces","pawn_structure","doubled_pawns","backward_pawns","pawn_majority","mobility","piece_coordination","rooks_connected","bishop_pair","overworked_defenders","checks","captures","pins","tactical_motifs","material_imbalance","phase","space_control","passed_pawns","center_control"],"feature_types":["float","float","float","int","int","int","float","int","int","int","float","float","int","int","int","int","int","int","int","int","int","int","int","int"],"gradient_booster":{"model":{"gbtree_model_param":{"num_parallel_tree":"1","num_trees":"18"},"iteration_indptr":[0,1,2,3,4,5,6,7,8,9,10,11,12,13,14,15,16,17,18],"tree_info":[0,0,0,0,0,0,0,0,0,0,0,0,0,0,0,0,0,0],"trees":[{"base_weights":[2.2560675E-8,-1.6472632E-1,1.2326067E-2,3.364631E-2,-2.0767139E-1,1.9618392E-2,-7.307455E-2,-1.2738017E-2,-2.477713E-1,-1.8379485E-2,3.0622907E-2,-4.938875E-2,-2.3638548E-1,2.2913942E-2,-1.7600116E-1,-2.0898974E-1,-3.0346042E-1,-4.8467584E-2,1.8679688E-2,5.6256186E-2,1.203892E-2,-3.1074246E-2,-1.2791122E-1,-1.7473705E-1,-3.875305E-1,-8.473474E-2,4.4430368E-2,-3.078155E-1,4.3711975E-2,-1.4296402E-1,-2.7195078E-1,-3.5304666E-1,-2.6543853E-1,-3.04132E-1,-4.5071695E-2,2.7829224E-2,-4.2940833E-2,5.7342723E-2,-9.1070406E-2,1.5007015E-2,-1.5246719E-1,-9.439735E-2,7.908208E-3,-8.061482E-2,-4.0846506E-1,-2.3632877E-1,2.5452673E-3,1.49974935E-2,-5.3182614E-1,-7.4317516E-3,-1.308752E-1,1.5794156E-2,-3.8637612E-2,-1.3916391E-1,-5.579419E-3,3.0129371E-2,-4.2304933E-2,-3.5691682E-2,-1.1847971E-1,-9.0039454E-2,-4.1501593E-2,-4.537624E-2,-1.2212975E-1,-7.391028E-2,-1.8696389E-1,-1.6644232E-1,-3.794258E-2,-3.993835E-2,-1.0427677E-2,1.8279158E-2,6.3095735E-3,-8.418262E-2,-9.11912E-3,1.9663353E-2,1.4305576E-2,-8.417918E-2,1.5260868E-2,5.526289E-3,-2.3152946E-2,-2.2121567E-2,-1.0198774E-1,-2.3470053E-2,-5.5289518E-2,-6.840179E-3,1.3876859E-2,1.7242096E-2,-3.876371E-2,6.247258E-4,-1.9185847E-1,-7.869378E-2,2.7963601E-2,-2.3443148E-2,2.6773628E-2,2.6170958E-2,-1.7922336E-2,-9.9157505E-2,-2.2160153E-1],"categories":[],"categories_nodes":[],"categories_segments":[],"categories_sizes":[],"default_left":[0,0,0,0,0,0,0,0,0,0,0,0,0,0,0,0,0,0,0,0,0,0,0,0,0,0,0,0,0,0,0,0,0,0,0,0,0,0,0,0,0,0,0,0,0,0,0,0,0,0,0,0,0,0,0,0,0,0,0,0,0,0,0,0,0,0,0,0,0,0,0,0,0,0,0,0,0,0,0,0,0,0,0,0,0,0,0,0,0,0,0,0,0,0,0,0,0],"id":0,"left_children":[1,3,5,-1,7,9,11,13,15,17,19,21,23,25,27,29,31,33,35,37,39,41,43,45,47,49,51,53,55,57,59,61,63,65,67,69,71,73,75,77,79,81,83,85,87,89,91,93,95,-1,-1,-1,-1,-1,-1,-1,-1,-1,-1,-1,-1,-1,-1,-1,-1,-1,-1,-1,-1,-1,-1,-1,-1,-1,-1,-1,-1,-1,-1,-1,-1,-1,-1,-1,-1,-1,-1,-1,-1,-1,-1,-1,-1,-1,-1,-1,-1],"loss_changes":[2.939851E1,1.2009077E1,8.390756E0,0E0,6.820919E0,5.1906195E0,4.088564E0,8.7713057E-1,1.5002098E0,3.1096373E0,4.5843697E0,1.3291445E0,1.1808763E0,2.9097545E-1,7.9541147E-1,1.7486496E0,4.62471E-1,1.3224659E0,7.0594406E-1,6.5273E-1,2.7273216E0,1.8595195E0,2.2891798E0,1.0597563E0,2.2151313E0,4.3182427E-1,1.5480754E-1,7.58693E-1,1.294167E-1,1.2345886E0,7.8307915E-1,1.3018503E0,1.0132084E0,8.205153E-1,1.3756893E0,2.4374336E-1,4.7443283E-1,3.149767E-1,8.213167E-1,1.726975E0,1.4362693E0,4.0263462E-1,5.510036E-1,1.0207512E0,2.3728914E0,6.409669E-1,1.8886364E-1,6.46011E-2,9.2172146E-1,0E0,0E0,0E0,0E0,0E0,0E0,0E0,0E0,0E0,0E0,0E0,0E0,0E0,0E0,0E0,0E0,0E0,0E0,0E0,0E0,0E0,0E0,0E0,0E0,0E0,0E0,0E0,0E0,0E0,0E0,0E0,0E0,0E0,0E0,0E0,0E0,0E0,0E0,0E0,0E0,0E0,0E0,0E0,0E0,0E0,0E0,0E0,0E0],"parents":[2147483647,0,0,1,1,2,2,4,4,5,5,6,6,7,7,8,8,9,9,10,10,11,11,12,12,13,13,14,14,15,15,16,16,17,17,18,18,19,19,20,20,21,21,22,22,23,23,24,24,25,25,26,26,27,27,28,28,29,29,30,30,31,31,32,32,33,33,34,34,35,35,36,36,37,37,38,38,39,39,40,40,41,41,42,42,43,43,44,44,45,45,46,46,47,47,48,48],"right_children":[2,4,6,-1,8,10,12,14,16,18,20,22,24,26,28,30,32,34,36,38,40,42,44,46,48,50,52,54,56,58,60,62,64,66,68,70,72,74,76,78,80,82,84,86,88,90,92,94,96,-1,-1,-1,-1,-1,-1,-1,-1,-1,-1,-1,-1,-1,-1,-1,-1,-1,-1,-1,-1,-1,-1,-1,-1,-1,-1,-1,-1,-1,-1,-1,-1,-1,-1,-1,-1,-1,-1,-1,-1,-1,-1,-1,-1,-1,-1,-1,-1],"split_conditions":[4.5454547E-2,5E-2,5E0,3.364631E-2,1E0,1.937198E4,1E1,1E0,3E0,1E0,4.8E-1,1.8656998E5,8.648649E-1,0E0,3E0,4E0,1E-1,1E-1,1E0,1.6444429E9,9.7727275E-1,1.0059897E4,9.62963E-1,1E0,1.3297434E5,3E0,1E0,2.8125E-1,1E-1,2E0,5.75E-1,1.7619047E1,2.580645E-1,2E0,4.355541E3,2E0,1.75E-1,3.3333334E-1,2E0,1.6444429E9,3.974359E-1,1E0,3.1950537E4,4.866913E8,4.0860215E-1,8.076923E-1,1.1608961E4,8.75E-1,1.724138E-1,-7.4317516E-3,-1.308752E-1,1.5794156E-2,-3.8637612E-2,-1.3916391E-1,-5.579419E-3,3.0129371E-2,-4.2304933E-2,-3.5691682E-2,-1.1847971E-1,-9.0039454E-2,-4.1501593E-2,-4.537624E-2,-1.2212975E-1,-7.391028E-2,-1.8696389E-1,-1.6644232E-1,-3.794258E-2,-3.993835E-2,-1.0427677E-2,1.8279158E-2,6.3095735E-3,-8.418262E-2,-9.11912E-3,1.9663353E-2,1.4305576E-2,-8.417918E-2,1.5260868E-2,5.526289E-3,-2.3152946E-2,-2.2121567E-2,-1.0198774E-1,-2.3470053E-2,-5.5289518E-2,-6.840179E-3,1.3876859E-2,1.7242096E-2,-3.876371E-2,6.247258E-4,-1.9185847E-1,-7.869378E-2,2.7963601E-2,-2.3443148E-2,2.6773628E-2,2.6170958E-2,-1.7922336E-2,-9.9157505E-2,-2.2160153E-1],"split_indices":[2,10,19,0,4,0,19,9,3,13,2,0,2,9,3,19,10,10,9,0,2,0,2,10,0,21,15,11,10,22,10,0,11,19,0,14,10,2,8,0,1,6,0,0,1,2,0,10,11,0,0,0,0,0,0,0,0,0,0,0,0,0,0,0,0,0,0,0,0,0,0,0,0,0,0,0,0,0,0,0,0,0,0,0,0,0,0,0,0,0,0,0,0,0,0,0,0],"split_type":[0,0,0,0,0,0,0,0,0,0,0,0,0,0,0,0,0,0,0,0,0,0,0,0,0,0,0,0,0,0,0,0,0,0,0,0,0,0,0,0,0,0,0,0,0,0,0,0,0,0,0,0,0,0,0,0,0,0,0,0,0,0,0,0,0,0,0,0,0,0,0,0,0,0,0,0,0,0,0,0,0,0,0,0,0,0,0,0,0,0,0,0,0,0,0,0,0],"sum_hessian":[1.4477E4,1.007E3,1.347E4,1.35E2,8.72E2,1.2411E4,1.059E3,1.49E2,7.23E2,2.787E3,9.624E3,9.26E2,1.33E2,1.23E2,2.6E1,4.29E2,2.94E2,1.538E3,1.249E3,4.044E3,5.58E3,7.52E2,1.74E2,9.6E1,3.7E1,2E1,1.03E2,1.6E1,1E1,2.11E2,2.18E2,1.24E2,1.7E2,1.9E1,1.519E3,1.088E3,1.61E2,4.015E3,2.9E1,5.482E3,9.8E1,2.86E2,4.66E2,1.5E2,2.4E1,7.1E1,2.5E1,1E1,2.7E1,1.8E1,2E0,9.9E1,4E0,1E1,6E0,8E0,2E0,1.94E2,1.7E1,1.79E2,3.9E1,2.7E1,9.7E1,1.63E2,7E0,7E0,1.2E1,1.58E2,1.361E3,1.84E2,9.04E2,7E0,1.54E2,2.168E3,1.847E3,1.2E1,1.7E1,5.287E3,1.95E2,7E1,2.8E1,2.44E2,4.2E1,2.59E2,2.07E2,3.9E1,1.11E2,9E0,1.5E1,6.6E1,5E0,1.3E1,1.2E1,5E0,5E0,1.5E1,1.2E1],"tree_param":{"num_deleted":"0","num_feature":"24","num_nodes":"97","size_leaf_vector":"1"}},{"base_weights":[-1.4801284E-4,-6.920776E-2,1.4720074E-2,-9.879703E-2,2.1263356E-3,1.5945E-2,-2.7052003E-1,2.3744183E-2,-1.1089523E-1,1.3083126E-2,-8.6477675E-2,3.5090107E-2,1.3298682E-3,-3.0608535E-1,1.1789782E-1,-1.7334485E-1,-6.407242E-2,1.5504766E-2,-6.261073E-2,5.5776488E-2,-1.3869682E-1,4.1178145E-2,1.453191E-2,5.1137405E-3,-7.703719E-2,-1.7637026E-1,-4.0407175E-1,1.9118434E-2,5.0186504E-2,-1.8375224E-1,-5.87536E-2,-5.9086103E-2,-1.654776E-1,8.4917724E-2,1.2941964E-2,-2.8372926E-1,2.422189E-2,9.153552E-2,-9.126315E-2,-2.2579943E-1,4.994673E-3,-9.502894E-2,4.2416308E-2,1.6583964E-2,-1.8572827E-1,8.501501E-3,-7.149087E-2,-3.1800833E-2,-2.3457576E-1,-2.4644037E-1,3.3346847E-2,-5.285546E-1,-5.791589E-2,-5.229164E-2,-8.237648E-2,-2.6286455E-2,3.0036509E-2,-1.2776727E-2,-2.5290366E-2,-1.11146204E-1,-3.5388898E-2,3.4633834E-2,-4.712606E-2,-5.8326926E-2,4.1740504E-3,-4.1266143E-2,-1.1521604E-1,-3.977116E-3,2.6668893E-2,1.101543E-2,4.1159824E-2,-4.2693045E-2,-2.938533E-3,1.9041324E-2,-7.850941E-2,1.4709416E-2,-6.823403E-2,-8.389837E-4,-1.4302044E-1,1.7491419E-2,1.09814685E-2,-1.9090376E-3,1.036531E-2,-1.8063805E-1,5.992262E-3,-2.0229972E-3,6.0936413E-3,-1.588062E-2,-1.22898206E-1,2.3481375E-2,-1.2620943E-2,-1.3899904E-1,-1.0730235E-2,-4.0219672E-2,-1.8187074E-1,-1.8902066E-1,-7.9356164E-2,-6.598531E-2,4.7732096E-2],"categories":[],"categories_nodes":[],"categories_segments":[],"categories_sizes":[],"default_left":[0,0,0,0,0,0,0,0,0,0,0,0,0,0,0,0,0,0,0,0,0,0,0,0,0,0,0,0,0,0,0,0,0,0,0,0,0,0,0,0,0,0,0,0,0,0,0,0,0,0,0,0,0,0,0,0,0,0,0,0,0,0,0,0,0,0,0,0,0,0,0,0,0,0,0,0,0,0,0,0,0,0,0,0,0,0,0,0,0,0,0,0,0,0,0,0,0,0,0],"id":1,"left_children":[1,3,5,7,9,11,13,-1,15,17,19,21,23,25,27,29,31,33,35,37,39,41,43,45,47,49,51,-1,-1,53,55,57,59,61,63,65,67,69,71,73,75,77,79,81,83,85,87,89,91,93,-1,95,97,-1,-1,-1,-1,-1,-1,-1,-1,-1,-1,-1,-1,-1,-1,-1,-1,-1,-1,-1,-1,-1,-1,-1,-1,-1,-1,-1,-1,-1,-1,-1,-1,-1,-1,-1,-1,-1,-1,-1,-1,-1,-1,-1,-1,-1,-1],"loss_changes":[1.486683E1,5.414218E0,4.1670427E0,3.9118137E0,7.321555E-1,3.3195984E0,7.406113E-1,0E0,4.9539585E0,1.23967275E-1,6.242924E-1,6.422186E-1,1.9957508E0,5.261183E-1,2.7163848E-3,8.5622215E-1,4.8170352E-1,1.147085E-1,4.100788E-1,1.2928772E-1,7.64598E-1,6.722102E-1,4.8594004E-1,1.6667138E0,2.2017465E0,4.706275E-1,1.0897412E0,0E0,0E0,5.236378E-1,2.9312947E-1,3.8243365E-1,3.9463937E-1,1.8805926E-1,1.2942511E-1,3.5161585E-2,3.996136E-2,4.252264E-2,1.9399546E-2,4.112178E-1,2.5681496E-1,1.2660689E0,3.604622E-1,4.801346E-1,1.0398775E0,1.107271E0,1.6850876E0,2.7683216E-1,3.1214287E0,6.464995E-1,0E0,3.4259415E-1,3.1631836E-1,0E0,0E0,0E0,0E0,0E0,0E0,0E0,0E0,0E0,0E0,0E0,0E0,0E0,0E0,0E0,0E0,0E0,0E0,0E0,0E0,0E0,0E0,0E0,0E0,0E0,0E0,0E0,0E0,0E0,0E0,0E0,0E0,0E0,0E0,0E0,0E0,0E0,0E0,0E0,0E0,0E0,0E0,0E0,0E0,0E0,0E0],"parents":[2147483647,0,0,1,1,2,2,3,3,4,4,5,5,6,6,8,8,9,9,10,10,11,11,12,12,13,13,14,14,15,15,16,16,17,17,18,18,19,19,20,20,21,21,22,22,23,23,24,24,25,25,26,26,29,29,30,30,31,31,32,32,33,33,34,34,35,35,36,36,37,37,38,38,39,39,40,40,41,41,42,42,43,43,44,44,45,45,46,46,47,47,48,48,49,49,51,51,52,52],"right_children":[2,4,6,8,10,12,14,-1,16,18,20,22,24,26,28,30,32,34,36,38,40,42,44,46,48,50,52,-1,-1,54,56,58,60,62,64,66,68,70,72,74,76,78,80,82,84,86,88,90,92,94,-1,96,98,-1,-1,-1,-1,-1,-1,-1,-1,-1,-1,-1,-1,-1,-1,-1,-1,-1,-1,-1,-1,-1,-1,-1,-1,-1,-1,-1,-1,-1,-1,-1,-1,-1,-1,-1,-1,-1,-1,-1,-1,-1,-1,-1,-1,-1,-1],"split_conditions":[1.0059897E4,1E0,1.3E1,5E-2,1E0,5E-1,5E0,2.3744183E-2,4.5454547E-2,8.75E-1,2E0,2E0,9.74359E-1,6E-1,2.4173728E8,5.75E-1,4.6875E-1,1.25E-1,3.4313726E-1,7.5E-1,3.75E-1,1E-1,2.533016E9,1.6444429E9,2.13619E5,2.9032257E-1,2E0,1.9118434E-2,5.0186504E-2,3E0,5.7152334E3,2E0,4.814815E-1,4E0,6.345E2,3.425926E-1,8.7392E3,1.1111111E-1,4.355541E3,5E-2,3E0,4E0,2.2727273E-1,3.1668695E4,4E0,2E0,4.6153846E-1,1.5524955E4,2.4173728E8,2E0,3.3346847E-2,2E0,9.5238096E-1,-5.229164E-2,-8.237648E-2,-2.6286455E-2,3.0036509E-2,-1.2776727E-2,-2.5290366E-2,-1.11146204E-1,-3.5388898E-2,3.4633834E-2,-4.712606E-2,-5.8326926E-2,4.1740504E-3,-4.1266143E-2,-1.1521604E-1,-3.977116E-3,2.6668893E-2,1.101543E-2,4.1159824E-2,-4.2693045E-2,-2.938533E-3,1.9041324E-2,-7.850941E-2,1.4709416E-2,-6.823403E-2,-8.389837E-4,-1.4302044E-1,1.7491419E-2,1.09814685E-2,-1.9090376E-3,1.036531E-2,-1.8063805E-1,5.992262E-3,-2.0229972E-3,6.0936413E-3,-1.588062E-2,-1.22898206E-1,2.3481375E-2,-1.2620943E-2,-1.3899904E-1,-1.0730235E-2,-4.0219672E-2,-1.8187074E-1,-1.8902066E-1,-7.9356164E-2,-6.598531E-2,4.7732096E-2],"split_indices":[0,13,19,10,9,2,14,0,2,10,14,19,2,2,0,10,11,10,1,10,11,10,0,0,0,11,21,0,0,21,0,3,11,3,0,1,0,11,0,10,16,23,2,0,19,16,11,0,0,21,0,22,2,0,0,0,0,0,0,0,0,0,0,0,0,0,0,0,0,0,0,0,0,0,0,0,0,0,0,0,0,0,0,0,0,0,0,0,0,0,0,0,0,0,0,0,0,0,0],"split_type":[0,0,0,0,0,0,0,0,0,0,0,0,0,0,0,0,0,0,0,0,0,0,0,0,0,0,0,0,0,0,0,0,0,0,0,0,0,0,0,0,0,0,0,0,0,0,0,0,0,0,0,0,0,0,0,0,0,0,0,0,0,0,0,0,0,0,0,0,0,0,0,0,0,0,0,0,0,0,0,0,0,0,0,0,0,0,0,0,0,0,0,0,0,0,0,0,0,0,0],"sum_hessian":[1.4477E4,2.564E3,1.1913E4,1.812E3,7.52E2,1.1863E4,5E1,1.15E2,1.697E3,6.7E2,8.2E1,5.135E3,6.728E3,4.6E1,4E0,7.26E2,9.71E2,6.5E2,2E1,2.2E1,6E1,3.961E3,1.174E3,6.419E3,3.09E2,2.1E1,2.5E1,3E0,1E0,6.65E2,6.1E1,9.27E2,4.4E1,2.2E1,6.28E2,5E0,1.5E1,1.8E1,4E0,3.7E1,2.3E1,3.5E1,3.926E3,1.163E3,1.1E1,6.148E3,2.71E2,2.41E2,6.8E1,1.7E1,4E0,1.8E1,7E0,6.05E2,6E1,5.2E1,9E0,5.62E2,3.65E2,7E0,3.7E1,2E1,2E0,2E0,6.26E2,3E0,2E0,1E1,5E0,9E0,9E0,2E0,2E0,4E0,3.3E1,2E1,3E0,2.9E1,6E0,1.049E3,2.877E3,5.11E2,6.52E2,3E0,8E0,2.684E3,3.464E3,2.58E2,1.3E1,2E1,2.21E2,3.1E1,3.7E1,1.4E1,3E0,1.2E1,6E0,4E0,3E0],"tree_param":{"num_deleted":"0","num_feature":"24","num_nodes":"99","size_leaf_vector":"1"}},{"base_weights":[-2.1134205E-4,-5.0818056E-2,9.828759E-3,3.0823539E-3,-7.20353E-2,1.1055423E-2,-1.3875873E-1,5.5481563E-3,-1.4693932E-1,1.6830554E-2,-8.176682E-2,2.4087936E-2,9.80581E-4,-5.143239E-2,-1.9709131E-1,6.5239226E-3,-9.6793205E-2,-1.8238142E-1,8.366744E-3,-1.333544E-1,-5.122528E-2,-1.2483742E-2,2.6373414E-2,3.8089864E-3,-5.0987087E-2,-1.5291226E-1,-1.4861679E-2,-1.4503933E-1,-1.4104603E-1,1.0008088E-2,-7.9759076E-2,-2.244646E-1,-3.1146588E-2,3.9247964E-3,-1.5976132E-4,-1.4737928E-1,-4.992916E-2,-9.503531E-2,-3.9267726E-2,-6.885324E-2,2.639626E-2,2.6712047E-2,-3.1170964E-1,-2.3730587E-2,9.635647E-3,-5.3078327E-3,-1.0073749E-1,3.3015765E-2,-2.3844652E-1,-2.770047E-2,-2.6596373E-1,1.7338047E-3,1.766952E-2,2.2666821E-2,-5.4465994E-2,-1.9277457E-2,-7.45355E-2,-5.6321222E-2,-3.542257E-2,-2.2523766E-2,5.291405E-2,-5.1515453E-2,-1.9063763E-2,-1.1296168E-2,-1.0433389E-1,-8.2690224E-2,-1.6312022E-2,1.2325947E-2,-3.3164024E-2,9.929396E-3,5.616316E-3,-1.2737545E-1,2.096867E-2,-3.5987976E-3,-4.0073108E-2,3.0095885E-3,-1.0237659E-1,1.3775047E-2,-1.366193E-2,-3.838321E-2,8.331148E-3,-1.678204E-2,3.045193E-2,-1.5157366E-1,2.6389223E-2,-7.615278E-2,6.7995684E-3,-1.430062E-1,-4.7259912E-2],"categories":[],"categories_nodes":[],"categories_segments":[],"categories_sizes":[],"default_left":[0,0,0,0,0,0,0,0,0,0,0,0,0,0,0,0,0,0,0,0,0,0,0,0,0,0,0,0,0,0,0,0,0,0,0,0,0,0,0,0,0,0,0,0,0,0,0,0,0,0,0,0,0,0,0,0,0,0,0,0,0,0,0,0,0,0,0,0,0,0,0,0,0,0,0,0,0,0,0,0,0,0,0,0,0,0,0,0,0],"id":2,"left_children":[1,3,5,7,9,11,13,15,17,-1,19,21,23,25,27,29,-1,31,33,35,37,39,41,43,45,-1,47,49,-1,51,53,55,-1,-1,-1,57,59,61,63,65,67,69,71,73,75,77,79,81,83,85,87,-1,-1,-1,-1,-1,-1,-1,-1,-1,-1,-1,-1,-1,-1,-1,-1,-1,-1,-1,-1,-1,-1,-1,-1,-1,-1,-1,-1,-1,-1,-1,-1,-1,-1,-1,-1,-1,-1],"loss_changes":[7.3567214E0,2.741475E0,2.203682E0,2.516236E-1,2.149374E0,1.5734816E0,4.9416625E-1,2.1602446E-1,6.2074035E-2,0E0,2.512495E0,4.3705463E-1,9.938172E-1,6.7956215E-1,7.70401E-1,2.0131458E-1,0E0,6.4499676E-3,1.3287163E-4,6.876383E-1,5.2327204E-1,6.768444E-1,5.713687E-1,1.0291222E0,7.9258925E-1,0E0,4.2535463E-1,7.1627855E-1,0E0,1.3238949E-1,4.2478228E-1,3.2493472E-3,0E0,0E0,0E0,5.786228E-1,5.0841975E-1,5.0824845E-1,3.812313E-1,3.6227602E-1,3.7268743E-1,2.5014186E-1,2.4504533E-1,1.4420815E0,7.3948425E-1,3.7922966E-1,5.8742774E-1,2.0673567E-1,6.540455E-1,3.1327814E-1,4.9612856E-1,0E0,0E0,0E0,0E0,0E0,0E0,0E0,0E0,0E0,0E0,0E0,0E0,0E0,0E0,0E0,0E0,0E0,0E0,0E0,0E0,0E0,0E0,0E0,0E0,0E0,0E0,0E0,0E0,0E0,0E0,0E0,0E0,0E0,0E0,0E0,0E0,0E0,0E0],"parents":[2147483647,0,0,1,1,2,2,3,3,4,4,5,5,6,6,7,7,8,8,10,10,11,11,12,12,13,13,14,14,15,15,17,17,18,18,19,19,20,20,21,21,22,22,23,23,24,24,26,26,27,27,29,29,30,30,31,31,35,35,36,36,37,37,38,38,39,39,40,40,41,41,42,42,43,43,44,44,45,45,46,46,47,47,48,48,49,49,50,50],"right_children":[2,4,6,8,10,12,14,16,18,-1,20,22,24,26,28,30,-1,32,34,36,38,40,42,44,46,-1,48,50,-1,52,54,56,-1,-1,-1,58,60,62,64,66,68,70,72,74,76,78,80,82,84,86,88,-1,-1,-1,-1,-1,-1,-1,-1,-1,-1,-1,-1,-1,-1,-1,-1,-1,-1,-1,-1,-1,-1,-1,-1,-1,-1,-1,-1,-1,-1,-1,-1,-1,-1,-1,-1,-1,-1],"split_conditions":[9.109958E3,1E0,1E1,8.75E-1,5E-2,5E-1,6.25E-1,2E0,3E0,1.6830554E-2,2.25E-1,3.5E-1,9.736842E-1,4.5454547E-2,1E0,1E0,-9.6793205E-2,5E-1,4.079693E3,3.7606838E-1,2.2943904E3,3.1668695E4,9E0,1E0,4.48571E4,-1.5291226E-1,1.6E1,2.4173728E8,-1.4104603E-1,3E0,1.051789E3,6.676698E3,-3.1146588E-2,3.9247964E-3,-1.5976132E-4,5E-1,1E0,0E0,6.0714287E-1,2E-1,2.533016E9,3.3333334E-1,3.412697E8,1.2224787E9,4E0,0E0,2.7466058E8,5E-1,1E0,1.2569978E4,1E0,1.7338047E-3,1.766952E-2,2.2666821E-2,-5.4465994E-2,-1.9277457E-2,-7.45355E-2,-5.6321222E-2,-3.542257E-2,-2.2523766E-2,5.291405E-2,-5.1515453E-2,-1.9063763E-2,-1.1296168E-2,-1.0433389E-1,-8.2690224E-2,-1.6312022E-2,1.2325947E-2,-3.3164024E-2,9.929396E-3,5.616316E-3,-1.2737545E-1,2.096867E-2,-3.5987976E-3,-4.0073108E-2,3.0095885E-3,-1.0237659E-1,1.3775047E-2,-1.366193E-2,-3.838321E-2,8.331148E-3,-1.678204E-2,3.045193E-2,-1.5157366E-1,2.6389223E-2,-7.615278E-2,6.7995684E-3,-1.430062E-1,-4.7259912E-2],"split_indices":[0,19,19,10,10,2,2,17,21,0,10,10,2,2,6,22,0,2,0,1,0,0,19,16,0,0,19,0,0,23,0,0,0,0,0,6,17,9,11,6,0,2,0,0,9,9,0,6,5,0,21,0,0,0,0,0,0,0,0,0,0,0,0,0,0,0,0,0,0,0,0,0,0,0,0,0,0,0,0,0,0,0,0,0,0,0,0,0,0],"split_type":[0,0,0,0,0,0,0,0,0,0,0,0,0,0,0,0,0,0,0,0,0,0,0,0,0,0,0,0,0,0,0,0,0,0,0,0,0,0,0,0,0,0,0,0,0,0,0,0,0,0,0,0,0,0,0,0,0,0,0,0,0,0,0,0,0,0,0,0,0,0,0,0,0,0,0,0,0,0,0,0,0,0,0,0,0,0,0,0,0],"sum_hessian":[1.4477E4,2.396E3,1.2081E4,6.77E2,1.719E3,1.1983E4,9.8E1,6.67E2,1E1,1.21E2,1.598E3,5.224E3,6.759E3,4E1,5.8E1,6.66E2,1E0,8E0,2E0,5.93E2,1.005E3,3.07E2,4.917E3,6.411E3,3.48E2,2E0,3.8E1,5E1,8E0,6.41E2,2.5E1,4E0,4E0,1E0,1E0,5.07E2,8.6E1,2.14E2,7.91E2,1.25E2,1.82E2,4.913E3,4E0,1.119E3,5.292E3,1.82E2,1.66E2,3.2E1,6E0,2.6E1,2.4E1,5.91E2,5E1,1E1,1.5E1,1E0,3E0,2.11E2,2.96E2,7.8E1,8E0,6.1E1,1.53E2,7.88E2,3E0,7E0,1.18E2,1.65E2,1.7E1,2.729E3,2.184E3,3E0,1E0,1.012E3,1.07E2,5.287E3,5E0,8E1,1.02E2,1.37E2,2.9E1,1.4E1,1.8E1,3E0,3E0,4E0,2.2E1,7E0,1.7E1],"tree_param":{"num_deleted":"0","num_feature":"24","num_nodes":"89","size_leaf_vector":"1"}},{"base_weights":[-2.5224115E-4,-2.5118927E-2,1.0248951E-2,5.8501167E-3,-3.819281E-2,1.10838385E-2,-1.5912096E-1,1.3135284E-2,-4.3671384E-2,-6.7664824E-2,-2.0339152E-2,1.909001E-2,-4.792716E-3,-2.626458E-2,-2.1005777E-1,1.0664433E-2,8.900338E-2,1.7755792E-2,-7.234968E-2,1.1872946E-2,-8.0673926E-2,-1.2360255E-2,-6.1444838E-2,2.0495819E-2,-5.9916217E-2,5.0432524E-3,-4.8856467E-2,7.020285E-2,-1.4654204E-1,-3.2779625E-1,-8.7460354E-2,1.7859677E-2,-1.9053701E-2,3.1281874E-2,-6.452411E-2,-2.4988182E-2,8.4079385E-2,-2.0557176E-1,-3.3680342E-2,-1.0789466E-1,-5.2862227E-2,-2.24727E-2,2.9953605E-2,-3.5981394E-2,-9.9553786E-2,1.8023625E-2,6.637559E-2,-4.6648577E-2,-1.6588789E-1,-3.354624E-2,8.179502E-3,-1.944675E-2,-1.0961793E-1,-3.6144655E-2,1.0909875E-1,1.8877627E-2,-2.4291411E-1,-3.6658722E-1,4.9747515E-2,1.1508268E-1,-2.4522644E-1,2.361489E-3,1.0736148E-2,-4.4399053E-2,-2.5291552E-3,-1.8217092E-2,1.2782752E-2,2.8530212E-2,-2.0452041E-2,-1.1694318E-1,-2.3272272E-2,1.3758714E-2,-2.3985691E-2,-2.9000485E-2,-6.439087E-2,-1.247391E-2,-3.091771E-2,2.7488943E-4,-1.2325909E-2,-2.4135971E-2,1.2687163E-2,-9.738341E-3,-1.025563E-1,-4.061968E-2,-9.164988E-3,-2.1373343E-2,5.5692033E-3,-5.762115E-2,2.148745E-2,-5.300022E-3,-6.431578E-2,-1.4915331E-2,1.9380344E-2,2.5457484E-3,-1.1681601E-1,4.381553E-3,-5.7715673E-2,-2.6437702E-2,-1.3277051E-1,3.8880043E-2,9.518916E-3,6.1055752E-3,-9.414559E-2,-2.7428742E-2,-1.1915391E-1,4.2467944E-2,4.4825436E-3,-1.2115041E-1,7.761124E-3],"categories":[],"categories_nodes":[],"categories_segments":[],"categories_sizes":[],"default_left":[0,0,0,0,0,0,0,0,0,0,0,0,0,0,0,0,0,0,0,0,0,0,0,0,0,0,0,0,0,0,0,0,0,0,0,0,0,0,0,0,0,0,0,0,0,0,0,0,0,0,0,0,0,0,0,0,0,0,0,0,0,0,0,0,0,0,0,0,0,0,0,0,0,0,0,0,0,0,0,0,0,0,0,0,0,0,0,0,0,0,0,0,0,0,0,0,0,0,0,0,0,0,0,0,0,0,0,0,0],"id":3,"left_children":[1,3,5,7,9,11,13,15,17,19,21,23,25,27,29,31,33,35,37,-1,39,41,43,45,47,49,51,53,55,57,59,61,63,-1,-1,65,67,69,71,73,75,77,79,81,83,85,87,89,-1,91,93,95,97,-1,99,-1,101,103,-1,105,107,-1,-1,-1,-1,-1,-1,-1,-1,-1,-1,-1,-1,-1,-1,-1,-1,-1,-1,-1,-1,-1,-1,-1,-1,-1,-1,-1,-1,-1,-1,-1,-1,-1,-1,-1,-1,-1,-1,-1,-1,-1,-1,-1,-1,-1,-1,-1,-1],"loss_changes":[3.7808948E0,1.7408268E0,1.4412652E0,4.6128002E-1,1.5892758E0,1.2878472E0,3.3284676E-1,2.0787984E-1,2.901914E-1,1.5936222E0,6.1715114E-1,7.49269E-1,1.4725391E0,1.8433052E-1,4.9097025E-1,2.3127586E-1,1.849396E-1,1.5235248E-1,5.700565E-1,0E0,7.642207E-1,6.763218E-1,2.933557E-1,7.494421E-1,7.4610496E-1,3.3648533E-1,1.1057944E0,7.989624E-2,1.5659317E-1,4.0545416E-1,6.3535535E-1,1.5550098E-1,2.8777727E-1,0E0,0E0,8.230292E-2,4.172191E-2,5.593134E-1,3.2755935E-1,5.9398985E-1,2.8172004E-1,5.5511516E-1,4.1883752E-1,1.8810202E-1,2.976247E-1,3.043127E-1,4.7230303E-1,5.601275E-1,0E0,3.3493528E-1,3.162919E-1,2.4702585E0,1.4064822E0,0E0,8.577205E-3,0E0,9.972054E-2,1.0678816E-1,0E0,2.1747835E-2,4.834277E-1,0E0,0E0,0E0,0E0,0E0,0E0,0E0,0E0,0E0,0E0,0E0,0E0,0E0,0E0,0E0,0E0,0E0,0E0,0E0,0E0,0E0,0E0,0E0,0E0,0E0,0E0,0E0,0E0,0E0,0E0,0E0,0E0,0E0,0E0,0E0,0E0,0E0,0E0,0E0,0E0,0E0,0E0,0E0,0E0,0E0,0E0,0E0,0E0],"parents":[2147483647,0,0,1,1,2,2,3,3,4,4,5,5,6,6,7,7,8,8,9,9,10,10,11,11,12,12,13,13,14,14,15,15,16,16,17,17,18,18,20,20,21,21,22,22,23,23,24,24,25,25,26,26,27,27,28,28,29,29,30,30,31,31,32,32,35,35,36,36,37,37,38,38,39,39,40,40,41,41,42,42,43,43,44,44,45,45,46,46,47,47,49,49,50,50,51,51,52,52,54,54,56,56,57,57,59,59,60,60],"right_children":[2,4,6,8,10,12,14,16,18,20,22,24,26,28,30,32,34,36,38,-1,40,42,44,46,48,50,52,54,56,58,60,62,64,-1,-1,66,68,70,72,74,76,78,80,82,84,86,88,90,-1,92,94,96,98,-1,100,-1,102,104,-1,106,108,-1,-1,-1,-1,-1,-1,-1,-1,-1,-1,-1,-1,-1,-1,-1,-1,-1,-1,-1,-1,-1,-1,-1,-1,-1,-1,-1,-1,-1,-1,-1,-1,-1,-1,-1,-1,-1,-1,-1,-1,-1,-1,-1,-1,-1,-1,-1,-1],"split_conditions":[1.937198E4,1E0,1.3E1,1E0,5.021219E3,7.777778E-1,2.4173728E8,9.5238096E-1,3E0,5E-2,9.5E-1,2.1938268E9,1.4060112E5,2.580645E-1,1.411258E9,2.9032257E-1,4.122807E-1,3.5333332E-1,2.9166666E-1,1.1872946E-2,2.25E-1,8.5714287E-1,1.5195844E4,2.13619E5,4E0,7.1428575E-2,1E0,4.2307693E-1,7E-1,5E0,2.533016E9,7.033896E3,6.676698E3,3.1281874E-2,-6.452411E-2,1.5384616E-1,7E0,8.068726E3,3.611111E-1,1E1,2.8E-1,3.255814E-1,3.448276E-1,5E0,4.090909E-1,7.5E-2,9.52381E-2,3.6666667E-1,-1.6588789E-1,4E0,5E0,5E0,4.4827586E-1,-3.6144655E-2,2.1052632E-1,1.8877627E-2,4.385965E-1,3.710692E-1,4.9747515E-2,1E0,1.4814815E-1,2.361489E-3,1.0736148E-2,-4.4399053E-2,-2.5291552E-3,-1.8217092E-2,1.2782752E-2,2.8530212E-2,-2.0452041E-2,-1.1694318E-1,-2.3272272E-2,1.3758714E-2,-2.3985691E-2,-2.9000485E-2,-6.439087E-2,-1.247391E-2,-3.091771E-2,2.7488943E-4,-1.2325909E-2,-2.4135971E-2,1.2687163E-2,-9.738341E-3,-1.025563E-1,-4.061968E-2,-9.164988E-3,-2.1373343E-2,5.5692033E-3,-5.762115E-2,2.148745E-2,-5.300022E-3,-6.431578E-2,-1.4915331E-2,1.9380344E-2,2.5457484E-3,-1.1681601E-1,4.381553E-3,-5.7715673E-2,-2.6437702E-2,-1.3277051E-1,3.8880043E-2,9.518916E-3,6.1055752E-3,-9.414559E-2,-2.7428742E-2,-1.1915391E-1,4.2467944E-2,4.4825436E-3,-1.2115041E-1,7.761124E-3],"split_indices":[0,4,19,9,0,2,0,2,14,10,10,0,0,11,0,2,1,1,11,0,10,2,0,0,5,11,17,2,10,14,0,0,0,0,0,11,19,0,2,19,11,2,1,21,11,10,2,11,0,19,5,19,11,0,11,0,1,1,0,6,11,0,0,0,0,0,0,0,0,0,0,0,0,0,0,0,0,0,0,0,0,0,0,0,0,0,0,0,0,0,0,0,0,0,0,0,0,0,0,0,0,0,0,0,0,0,0,0,0],"split_type":[0,0,0,0,0,0,0,0,0,0,0,0,0,0,0,0,0,0,0,0,0,0,0,0,0,0,0,0,0,0,0,0,0,0,0,0,0,0,0,0,0,0,0,0,0,0,0,0,0,0,0,0,0,0,0,0,0,0,0,0,0,0,0,0,0,0,0,0,0,0,0,0,0,0,0,0,0,0,0,0,0,0,0,0,0,0,0,0,0,0,0,0,0,0,0,0,0,0,0,0,0,0,0,0,0,0,0,0,0],"sum_hessian":[1.4477E4,4.298E3,1.0179E4,1.276E3,3.022E3,1.013E4,4.9E1,1.113E3,1.63E2,1.139E3,1.883E3,6.734E3,3.396E3,1.4E1,3.5E1,1.079E3,3.4E1,5.2E1,1.11E2,1.23E2,1.016E3,1.578E3,3.05E2,6.617E3,1.17E2,2.777E3,6.19E2,8E0,6E0,1.7E1,1.8E1,8.69E2,2.1E2,3.3E1,1E0,3.2E1,2E1,2.4E1,8.7E1,5.12E2,5.04E2,1.274E3,3.04E2,1.84E2,1.21E2,6.28E3,3.37E2,1.15E2,2E0,2.08E2,2.569E3,4.18E2,2.01E2,1E0,7E0,2E0,4E0,1.6E1,1E0,8E0,1E1,5.59E2,3.1E2,1.5E1,1.95E2,2.1E1,1.1E1,1.9E1,1E0,9E0,1.5E1,3.2E1,5.5E1,4.65E2,4.7E1,4.13E2,9.1E1,5.65E2,7.09E2,3E1,2.74E2,1.83E2,1E0,7.9E1,4.2E1,3.7E1,6.243E3,6E0,3.31E2,9.9E1,1.6E1,1.79E2,2.9E1,2.568E3,1E0,3.5E2,6.8E1,1.9E2,1.1E1,5E0,2E0,1E0,3E0,2E0,1.4E1,6E0,2E0,6E0,4E0],"tree_param":{"num_deleted":"0","num_feature":"24","num_nodes":"109","size_leaf_vector":"1"}},{"base_weights":[-2.70197E-4,-2.364479E-2,5.30406E-3,-4.3919785E-3,-3.92216E-2,5.837886E-3,-1.1664845E-1,-9.061504E-2,1.1536951E-4,8.514688E-3,-4.5732915E-2,8.4995147E-4,1.7373485E-2,-1.0594005E-1,-9.451119E-2,-4.026404E-2,-2.9705554E-1,1.8788661E-1,-1.6395999E-3,-6.633588E-2,-2.4439627E-2,-1.3012631E-2,6.289884E-3,6.3461508E-3,2.3191242E-2,-1.6108087E-1,-4.1208528E-2,6.0304865E-2,-1.2502795E-1,-3.4060675E-1,2.730118E-2,7.631293E-2,9.0082355E-2,1.3013377E-2,-1.7373184E-2,-6.880104E-2,1.5981498E-1,8.075326E-3,-4.2351827E-2,-9.6183345E-2,-9.568039E-3,1.05531905E-2,-4.930194E-2,2.325882E-2,-3.7387544E-3,2.3517633E-2,-2.3455536E-1,-1.16859056E-1,-4.373246E-2,-1.0378861E-1,1.6135865E-1,3.0877648E-2,-2.8969646E-3,-2.0367067E-2,-8.6022764E-2,-1.3811126E-1,-7.144466E-2,-2.571307E-2,4.271488E-2,1.7059935E-4,1.0202369E-2,-6.541485E-3,2.5196606E-2,-1.8000597E-2,-3.809058E-2,5.815039E-2,1.1551214E-2,4.1661365E-3,-1.4077394E-1,-2.203941E-2,-6.6757645E-3,-9.8788455E-2,-1.5932912E-2,-5.113665E-3,4.6541505E-3,4.18816E-3,-6.3786865E-3,-3.1925722E-3,-3.8386587E-2,6.392393E-3,3.5204925E-2,-5.9501715E-2,-1.8729526E-4,6.7323945E-3,1.8786188E-2,-6.2563065E-3,-9.929361E-2,-3.0913448E-2,4.354132E-2,-4.480531E-2,2.429815E-2,6.2585615E-2,2.2127684E-2],"categories":[],"categories_nodes":[],"categories_segments":[],"categories_sizes":[],"default_left":[0,0,0,0,0,0,0,0,0,0,0,0,0,0,0,0,0,0,0,0,0,0,0,0,0,0,0,0,0,0,0,0,0,0,0,0,0,0,0,0,0,0,0,0,0,0,0,0,0,0,0,0,0,0,0,0,0,0,0,0,0,0,0,0,0,0,0,0,0,0,0,0,0,0,0,0,0,0,0,0,0,0,0,0,0,0,0,0,0,0,0,0,0],"id":4,"left_children":[1,3,5,7,9,11,13,15,17,-1,19,21,23,-1,25,27,29,31,33,35,37,39,41,43,45,47,49,51,53,55,-1,-1,57,59,61,63,65,67,69,71,73,75,77,79,81,83,85,-1,87,89,91,-1,-1,-1,-1,-1,-1,-1,-1,-1,-1,-1,-1,-1,-1,-1,-1,-1,-1,-1,-1,-1,-1,-1,-1,-1,-1,-1,-1,-1,-1,-1,-1,-1,-1,-1,-1,-1,-1,-1,-1,-1,-1],"loss_changes":[1.8865508E0,8.359417E-1,7.6178235E-1,4.8502985E-1,6.796315E-1,6.697945E-1,2.3361665E-1,6.3249743E-1,3.914635E-1,0E0,6.151974E-1,6.130267E-1,2.2529113E-1,0E0,1.6368246E-1,4.4229513E-1,2.3380208E-1,4.861799E-2,2.7157617E-1,4.0904975E-1,4.0395516E-1,6.5542644E-1,1.3841554E0,2.073206E-1,1.9900703E-1,5.459364E-1,3.7169397E-1,7.255706E-2,2.392532E-1,2.534175E-2,0E0,0E0,6.736797E-2,1.5935583E-1,2.5698373E-1,3.542378E-1,2.5552213E-2,6.917183E-1,2.778951E-1,8.962388E-1,4.1306198E-1,5.8818394E-1,1.2635865E0,8.083433E-2,4.6170175E-1,9.5311284E-2,5.4914936E-2,0E0,1.8299073E-1,1.9731753E-1,1.3592258E-2,0E0,0E0,0E0,0E0,0E0,0E0,0E0,0E0,0E0,0E0,0E0,0E0,0E0,0E0,0E0,0E0,0E0,0E0,0E0,0E0,0E0,0E0,0E0,0E0,0E0,0E0,0E0,0E0,0E0,0E0,0E0,0E0,0E0,0E0,0E0,0E0,0E0,0E0,0E0,0E0,0E0,0E0],"parents":[2147483647,0,0,1,1,2,2,3,3,4,4,5,5,6,6,7,7,8,8,10,10,11,11,12,12,14,14,15,15,16,16,17,17,18,18,19,19,20,20,21,21,22,22,23,23,24,24,25,25,26,26,27,27,28,28,29,29,32,32,33,33,34,34,35,35,36,36,37,37,38,38,39,39,40,40,41,41,42,42,43,43,44,44,45,45,46,46,48,48,49,49,50,50],"right_children":[2,4,6,8,10,12,14,16,18,-1,20,22,24,-1,26,28,30,32,34,36,38,40,42,44,46,48,50,52,54,56,-1,-1,58,60,62,64,66,68,70,72,74,76,78,80,82,84,86,-1,88,90,92,-1,-1,-1,-1,-1,-1,-1,-1,-1,-1,-1,-1,-1,-1,-1,-1,-1,-1,-1,-1,-1,-1,-1,-1,-1,-1,-1,-1,-1,-1,-1,-1,-1,-1,-1,-1,-1,-1,-1,-1,-1,-1],"split_conditions":[1.1275091E4,1E0,1.3E1,6.345E2,5E-2,3E0,6.451613E-2,2E0,1.25E-1,8.514688E-3,9.52381E-2,2.9596135E4,5E-1,-1.0594005E-1,1E0,2.75E-1,6.5E-1,2.1248E3,1.25E-1,7E0,4.75E-1,1.5E-1,9.6666664E-1,3.5135135E-1,5E0,3.3333334E-1,1E0,1E0,1E0,2.8839825E2,2.730118E-2,7.631293E-2,2.2943904E3,2.6158572E3,9.4285715E-1,2E0,1E0,2E0,2E0,1E0,9.230769E-1,4.866913E8,3.974359E-1,3E0,1.25E-1,1.0197084E5,2.105685E4,-1.16859056E-1,1E0,5E0,1.4285715E-1,3.0877648E-2,-2.8969646E-3,-2.0367067E-2,-8.6022764E-2,-1.3811126E-1,-7.144466E-2,-2.571307E-2,4.271488E-2,1.7059935E-4,1.0202369E-2,-6.541485E-3,2.5196606E-2,-1.8000597E-2,-3.809058E-2,5.815039E-2,1.1551214E-2,4.1661365E-3,-1.4077394E-1,-2.203941E-2,-6.6757645E-3,-9.8788455E-2,-1.5932912E-2,-5.113665E-3,4.6541505E-3,4.18816E-3,-6.3786865E-3,-3.1925722E-3,-3.8386587E-2,6.392393E-3,3.5204925E-2,-5.9501715E-2,-1.8729526E-4,6.7323945E-3,1.8786188E-2,-6.2563065E-3,-9.929361E-2,-3.0913448E-2,4.354132E-2,-4.480531E-2,2.429815E-2,6.2585615E-2,2.2127684E-2],"split_indices":[0,3,19,0,10,5,11,22,10,0,2,0,6,0,5,10,10,0,2,14,10,10,2,2,5,6,22,6,21,0,0,0,0,0,2,9,6,17,14,19,2,0,1,3,10,0,0,0,9,14,6,0,0,0,0,0,0,0,0,0,0,0,0,0,0,0,0,0,0,0,0,0,0,0,0,0,0,0,0,0,0,0,0,0,0,0,0,0,0,0,0,0,0],"split_type":[0,0,0,0,0,0,0,0,0,0,0,0,0,0,0,0,0,0,0,0,0,0,0,0,0,0,0,0,0,0,0,0,0,0,0,0,0,0,0,0,0,0,0,0,0,0,0,0,0,0,0,0,0,0,0,0,0,0,0,0,0,0,0,0,0,0,0,0,0,0,0,0,0,0,0,0,0,0,0,0,0,0,0,0,0,0,0,0,0,0,0,0,0],"sum_hessian":[1.4477E4,2.787E3,1.169E4,1.247E3,1.54E3,1.164E4,5E1,6.1E1,1.186E3,1.35E2,1.405E3,8.127E3,3.513E3,3E0,4.7E1,5E1,1.1E1,1E1,1.176E3,7.13E2,6.92E2,2.29E3,5.837E3,1.214E3,2.299E3,2E1,2.7E1,2.3E1,2.7E1,1E1,1E0,5E0,5E0,6.09E2,5.67E2,7.06E2,7E0,2.46E2,4.46E2,9E1,2.2E3,5.422E3,4.15E2,4.53E2,7.61E2,2.297E3,2E0,6E0,1.4E1,2.1E1,6E0,1.4E1,9E0,2.1E1,6E0,3E0,7E0,1E0,4E0,3.83E2,2.26E2,5.44E2,2.3E1,6.15E2,9.1E1,5E0,2E0,2.44E2,2E0,1.74E2,2.72E2,1.3E1,7.7E1,1.695E3,5.05E2,4.898E3,5.24E2,2.79E2,1.36E2,4.45E2,8E0,1.1E1,7.5E2,2.237E3,6E1,1E0,1E0,1.1E1,3E0,1.7E1,4E0,3E0,3E0],"tree_param":{"num_deleted":"0","num_feature":"24","num_nodes":"93","size_leaf_vector":"1"}},{"base_weights":[-2.3642978E-4,2.418225E-3,-2.5906395E-2,-5.798736E-2,3.8505425E-3,7.936223E-2,-3.1866476E-2,1.9761438E-2,-9.182062E-2,1.0129956E-2,-8.157858E-4,-1.2168173E-2,1.5109737E-1,-8.027775E-2,-1.7988985E-2,5.508092E-3,2.3691008E-2,-8.299139E-2,-1.5905775E-1,1.2631594E-2,-1.473658E-2,-1.4990386E-2,3.2928288E-3,4.244054E-2,-3.2646507E-1,5.846245E-3,8.649402E-2,-2.506372E-1,-6.442639E-2,-6.3371453E-3,-6.0003057E-2,2.8878772E-3,7.930233E-3,-6.794449E-2,-2.730684E-1,1.1223365E-2,8.174911E-2,-8.622581E-3,-2.8574774E-1,-1.3998415E-2,-2.849531E-1,3.566207E-3,-2.5687397E-1,6.773966E-2,-9.989022E-2,-1.4609203E-1,4.7335234E-2,-3.3354804E-1,3.934006E-2,-4.5795605E-2,-2.1317844E-1,-4.2071105E-3,-2.4217002E-1,-4.868551E-2,-3.9257434E-1,-2.5230281E-2,1.6960256E-2,5.0660975E-2,-9.5009275E-2,-2.3999384E-2,3.667477E-3,1.9247117E-2,3.6600117E-2,-1.8947829E-2,3.946373E-3,2.682075E-4,-1.1800505E-1,1.9425675E-2,-5.2598477E-3,-1.248215E-1,5.5595946E-2,1.3580363E-3,-1.7750965E-2,-2.3808093E-3,-1.5094997E-1,6.2000314E-3,8.404248E-2,-4.453144E-2,-1.6299012E-1,-1.7527627E-2,5.2313127E-2,-1.0404312E-1,1.110606E-2,-1.0514407E-2,3.8743822E-3,2.0142023E-2,-9.147352E-2,-1.5162693E-3,-2.7075008E-2,3.1313896E-2,-1.8366957E-1],"categories":[],"categories_nodes":[],"categories_segments":[],"categories_sizes":[],"default_left":[0,0,0,0,0,0,0,0,0,0,0,0,0,0,0,0,0,0,0,0,0,0,0,0,0,0,0,0,0,0,0,0,0,0,0,0,0,0,0,0,0,0,0,0,0,0,0,0,0,0,0,0,0,0,0,0,0,0,0,0,0,0,0,0,0,0,0,0,0,0,0,0,0,0,0,0,0,0,0,0,0,0,0,0,0,0,0,0,0,0,0],"id":5,"left_children":[1,3,5,7,9,11,13,15,17,19,21,23,25,27,29,-1,31,33,-1,35,37,39,41,43,45,-1,-1,47,49,51,53,-1,-1,55,57,59,61,63,65,67,69,71,73,75,-1,-1,-1,77,-1,79,81,83,85,87,89,-1,-1,-1,-1,-1,-1,-1,-1,-1,-1,-1,-1,-1,-1,-1,-1,-1,-1,-1,-1,-1,-1,-1,-1,-1,-1,-1,-1,-1,-1,-1,-1,-1,-1,-1,-1],"loss_changes":[9.866644E-1,1.1355383E0,8.5392356E-1,8.014852E-1,3.7562805E-1,4.8115274E-1,8.618536E-1,7.7068806E-5,7.7654123E-1,3.401479E-1,4.283896E-1,5.8024585E-1,7.3479986E-1,7.561743E-1,4.8916098E-1,0E0,5.557416E-4,5.7920134E-1,0E0,4.8244005E-1,8.260171E-1,4.3867615E-1,4.0653554E-1,2.9798228E-1,4.6546674E-1,0E0,0E0,8.034097E-1,7.1910715E-1,3.9280966E-1,7.976516E-1,0E0,0E0,3.9692545E-1,3.4270155E-1,4.457354E-1,6.2274992E-2,5.82783E-1,3.3962846E-1,4.598349E-1,4.4707528E-1,3.4364673E-1,3.6387622E-1,2.741648E-1,0E0,0E0,0E0,6.9589806E-1,0E0,6.6366214E-1,9.8244023E-1,4.1127503E-1,1.5631828E-1,3.8219512E-1,8.2802236E-1,0E0,0E0,0E0,0E0,0E0,0E0,0E0,0E0,0E0,0E0,0E0,0E0,0E0,0E0,0E0,0E0,0E0,0E0,0E0,0E0,0E0,0E0,0E0,0E0,0E0,0E0,0E0,0E0,0E0,0E0,0E0,0E0,0E0,0E0,0E0,0E0],"parents":[2147483647,0,0,1,1,2,2,3,3,4,4,5,5,6,6,7,7,8,8,9,9,10,10,11,11,12,12,13,13,14,14,16,16,17,17,19,19,20,20,21,21,22,22,23,23,24,24,27,27,28,28,29,29,30,30,33,33,34,34,35,35,36,36,37,37,38,38,39,39,40,40,41,41,42,42,43,43,47,47,49,49,50,50,51,51,52,52,53,53,54,54],"right_children":[2,4,6,8,10,12,14,16,18,20,22,24,26,28,30,-1,32,34,-1,36,38,40,42,44,46,-1,-1,48,50,52,54,-1,-1,56,58,60,62,64,66,68,70,72,74,76,-1,-1,-1,78,-1,80,82,84,86,88,90,-1,-1,-1,-1,-1,-1,-1,-1,-1,-1,-1,-1,-1,-1,-1,-1,-1,-1,-1,-1,-1,-1,-1,-1,-1,-1,-1,-1,-1,-1,-1,-1,-1,-1,-1,-1],"split_conditions":[5E0,4.4914285E2,1.7619047E1,5E-2,1E0,5E-1,9.52381E-2,1E0,6E0,9.130435E-1,3.478261E-1,7.5E-2,5E-2,7.5E-2,9.5E-1,5.508092E-3,0E0,3.6666667E-1,-1.5905775E-1,2.03675E8,2E0,6E0,4E0,2E0,6E0,5.846245E-3,8.649402E-2,1E0,2E0,1.6E1,2.4351642E9,2.8878772E-3,7.930233E-3,1.724138E-1,0E0,1.25E-1,8.25E-1,3.5772356E-1,3.478261E-1,7.5E-2,4E0,9.7727275E-1,3.678161E-1,5E-2,-9.989022E-2,-1.4609203E-1,4.7335234E-2,1.4814815E-1,3.934006E-2,1E0,3.902439E-1,1E0,3.5772356E-1,7.368421E-1,-2E0,-2.5230281E-2,1.6960256E-2,5.0660975E-2,-9.5009275E-2,-2.3999384E-2,3.667477E-3,1.9247117E-2,3.6600117E-2,-1.8947829E-2,3.946373E-3,2.682075E-4,-1.1800505E-1,1.9425675E-2,-5.2598477E-3,-1.248215E-1,5.5595946E-2,1.3580363E-3,-1.7750965E-2,-2.3808093E-3,-1.5094997E-1,6.2000314E-3,8.404248E-2,-4.453144E-2,-1.6299012E-1,-1.7527627E-2,5.2313127E-2,-1.0404312E-1,1.110606E-2,-1.0514407E-2,3.8743822E-3,2.0142023E-2,-9.147352E-2,-1.5162693E-3,-2.7075008E-2,3.1313896E-2,-1.8366957E-1],"split_indices":[19,0,0,10,19,6,2,13,3,2,1,10,10,10,10,0,9,11,0,0,17,21,9,22,3,0,0,13,9,19,0,0,0,11,9,10,2,1,11,10,3,2,1,10,0,0,0,11,0,17,1,16,1,2,9,0,0,0,0,0,0,0,0,0,0,0,0,0,0,0,0,0,0,0,0,0,0,0,0,0,0,0,0,0,0,0,0,0,0,0,0],"split_type":[0,0,0,0,0,0,0,0,0,0,0,0,0,0,0,0,0,0,0,0,0,0,0,0,0,0,0,0,0,0,0,0,0,0,0,0,0,0,0,0,0,0,0,0,0,0,0,0,0,0,0,0,0,0,0,0,0,0,0,0,0,0,0,0,0,0,0,0,0,0,0,0,0,0,0,0,0,0,0,0,0,0,0,0,0,0,0,0,0,0,0],"sum_hessian":[1.4477E4,1.3121E4,1.356E3,3.03E2,1.2818E4,7.2E1,1.284E3,9.2E1,2.11E2,5.464E3,7.354E3,3.2E1,4E1,2.85E2,9.99E2,7.2E1,2E1,2.08E2,3E0,4.965E3,4.99E2,1.652E3,5.702E3,2.8E1,4E0,2.1E1,1.9E1,2.3E1,2.62E2,7.83E2,2.16E2,4E0,1.6E1,1.94E2,1.4E1,4.867E3,9.8E1,4.89E2,1E1,1.647E3,5E0,5.697E3,5E0,2.7E1,1E0,3E0,1E0,1.9E1,4E0,2.34E2,2.8E1,7.77E2,6E0,2.1E2,6E0,1.72E2,2.2E1,1E0,1.3E1,5.2E1,4.815E3,7E1,2.8E1,1.39E2,3.5E2,3E0,7E0,7E1,1.577E3,4E0,1E0,5.612E3,8.5E1,3E0,2E0,2.3E1,4E0,1.1E1,8E0,2.22E2,1.2E1,1.8E1,1E1,2.77E2,5E2,1E0,5E0,1.03E2,1.07E2,2E0,4E0],"tree_param":{"num_deleted":"0","num_feature":"24","num_nodes":"91","size_leaf_vector":"1"}},{"base_weights":[-2.3585476E-4,-1.0630166E-2,4.153672E-3,-6.5902895E-3,-3.694141E-2,9.26495E-3,-2.671305E-3,-5.01551E-3,-7.4846014E-2,-3.210549E-1,-3.437537E-2,1.3590436E-2,2.175733E-3,-3.0434519E-2,1.9913104E-3,-6.0422844E-3,9.527215E-2,-1.432414E-1,5.3040415E-2,-4.321698E-1,1.8510703E-2,-1.3069336E-1,-3.289933E-2,-1.1832157E-1,1.4038496E-2,-1.453389E-1,4.2753094E-3,-1.6679725E-2,-1.0275549E-1,1.9668939E-4,1.0489854E-1,-8.054193E-3,4.4241007E-2,-7.09406E-2,1.17568865E-1,-1.4302E-2,-2.1089548E-1,7.343283E-2,-8.0750965E-2,-1.4621392E-1,-3.998102E-2,-1.3972241E-2,-5.41134E-2,1.2272256E-2,4.0825557E-2,-3.7426567E-1,-3.4674965E-2,5.540019E-3,-1.4772736E-1,-1.2922005E-2,-4.071529E-1,-1.732721E-1,1.4085545E-1,1.5946276E-3,-7.861515E-2,1.18970804E-1,-1.1724817E-1,4.0339914E-4,-5.160804E-3,-1.08206885E-4,2.0331342E-2,3.2954575E-3,-3.876576E-2,4.53507E-3,4.6607547E-2,1.289437E-2,-5.842438E-2,6.868836E-4,-7.8729875E-2,5.3965557E-2,7.294079E-3,-2.8516022E-2,6.51221E-4,-3.755612E-2,-1.1973278E-2,5.4170857E-3,2.312999E-3,1.917447E-2,-1.27408635E-2,3.338598E-2,-1.5286936E-1,1.196578E-2,-1.5605679E-1,9.3365734E-4,1.3217242E-2,4.9251914E-3,-9.410885E-2,-3.2307208E-2,-1.2031557E-3,-2.736605E-2,-1.762104E-1,-1.0413223E-1,-2.5417536E-2,5.450729E-2,-1.13628894E-1,5.970105E-4,-8.512017E-2,-7.5759464E-3,-7.5374246E-2,1.5115248E-3,4.7294732E-2],"categories":[],"categories_nodes":[],"categories_segments":[],"categories_sizes":[],"default_left":[0,0,0,0,0,0,0,0,0,0,0,0,0,0,0,0,0,0,0,0,0,0,0,0,0,0,0,0,0,0,0,0,0,0,0,0,0,0,0,0,0,0,0,0,0,0,0,0,0,0,0,0,0,0,0,0,0,0,0,0,0,0,0,0,0,0,0,0,0,0,0,0,0,0,0,0,0,0,0,0,0,0,0,0,0,0,0,0,0,0,0,0,0,0,0,0,0,0,0,0,0],"id":6,"left_children":[1,3,5,7,9,11,13,15,17,19,21,23,25,27,29,31,33,35,37,39,-1,-1,41,-1,43,45,47,49,51,53,55,57,59,61,63,65,67,69,-1,-1,-1,71,73,75,77,79,81,83,85,87,89,91,93,95,97,99,-1,-1,-1,-1,-1,-1,-1,-1,-1,-1,-1,-1,-1,-1,-1,-1,-1,-1,-1,-1,-1,-1,-1,-1,-1,-1,-1,-1,-1,-1,-1,-1,-1,-1,-1,-1,-1,-1,-1,-1,-1,-1,-1,-1,-1],"loss_changes":[6.6061896E-1,4.5671514E-1,3.5514742E-1,4.0033883E-1,4.059778E-1,1.7846742E-1,5.6445915E-1,3.7591144E-1,7.4233234E-1,2.3931605E-1,3.2208753E-1,6.663822E-1,6.841696E-1,6.220006E-1,6.895726E-1,3.6546218E-1,1.4546233E-1,4.7676396E-1,2.1688533E-1,1.0557771E-3,0E0,0E0,2.2690606E-1,0E0,1.7039126E-1,7.7237445E-1,4.193232E-1,7.694673E-1,1.7422682E0,4.0457445E-1,4.9296016E-1,2.9847813E-1,1.459027E-1,2.5291951E-2,1.2541491E-1,2.1510102E-1,3.961333E-1,1.4726323E-1,0E0,0E0,0E0,3.9418262E-1,2.6451916E-1,8.9327276E-2,4.3159443E-1,7.1365464E-1,8.171567E-1,2.0185259E-1,4.955221E-1,4.4210172E-1,2.310996E-1,1.1712134E0,5.5685216E-1,4.0762278E-1,5.832235E-1,2.7682847E-1,0E0,0E0,0E0,0E0,0E0,0E0,0E0,0E0,0E0,0E0,0E0,0E0,0E0,0E0,0E0,0E0,0E0,0E0,0E0,0E0,0E0,0E0,0E0,0E0,0E0,0E0,0E0,0E0,0E0,0E0,0E0,0E0,0E0,0E0,0E0,0E0,0E0,0E0,0E0,0E0,0E0,0E0,0E0,0E0,0E0],"parents":[2147483647,0,0,1,1,2,2,3,3,4,4,5,5,6,6,7,7,8,8,9,9,10,10,11,11,12,12,13,13,14,14,15,15,16,16,17,17,18,18,19,19,22,22,24,24,25,25,26,26,27,27,28,28,29,29,30,30,31,31,32,32,33,33,34,34,35,35,36,36,37,37,41,41,42,42,43,43,44,44,45,45,46,46,47,47,48,48,49,49,50,50,51,51,52,52,53,53,54,54,55,55],"right_children":[2,4,6,8,10,12,14,16,18,20,22,24,26,28,30,32,34,36,38,40,-1,-1,42,-1,44,46,48,50,52,54,56,58,60,62,64,66,68,70,-1,-1,-1,72,74,76,78,80,82,84,86,88,90,92,94,96,98,100,-1,-1,-1,-1,-1,-1,-1,-1,-1,-1,-1,-1,-1,-1,-1,-1,-1,-1,-1,-1,-1,-1,-1,-1,-1,-1,-1,-1,-1,-1,-1,-1,-1,-1,-1,-1,-1,-1,-1,-1,-1,-1,-1,-1,-1],"split_conditions":[1.937198E4,2E0,6.571429E-1,1E1,2.5E-1,2E0,1E0,9E0,1.2E1,1.3419166E4,0E0,4.5454547E-2,7.5E-2,6.211716E8,2.4351642E9,9.5555556E-1,1E0,3.3333334E-1,1E0,1.0059897E4,1.8510703E-2,-1.3069336E-1,4.7368422E-1,-1.1832157E-1,2.13619E5,3E0,7E0,5.555556E-1,9.166667E-1,2E0,5.555556E-1,1E0,2E0,1.7619047E1,2E0,4E0,1.7619047E1,1.3E1,-8.0750965E-2,-1.4621392E-1,-3.998102E-2,8.143333E2,5.714286E-1,1E0,1E0,1.0714286E-1,1E0,1.6586886E5,4.3589744E-1,1.75E-1,6.0718594E4,1E0,4.3410853E-1,4E0,4.4827586E-1,1E0,-1.1724817E-1,4.0339914E-4,-5.160804E-3,-1.08206885E-4,2.0331342E-2,3.2954575E-3,-3.876576E-2,4.53507E-3,4.6607547E-2,1.289437E-2,-5.842438E-2,6.868836E-4,-7.8729875E-2,5.3965557E-2,7.294079E-3,-2.8516022E-2,6.51221E-4,-3.755612E-2,-1.1973278E-2,5.4170857E-3,2.312999E-3,1.917447E-2,-1.27408635E-2,3.338598E-2,-1.5286936E-1,1.196578E-2,-1.5605679E-1,9.3365734E-4,1.3217242E-2,4.9251914E-3,-9.410885E-2,-3.2307208E-2,-1.2031557E-3,-2.736605E-2,-1.762104E-1,-1.0413223E-1,-2.5417536E-2,5.450729E-2,-1.13628894E-1,5.970105E-4,-8.512017E-2,-7.5759464E-3,-7.5374246E-2,1.5115248E-3,4.7294732E-2],"split_indices":[0,15,2,19,10,21,16,19,19,0,4,2,10,0,0,2,4,6,15,0,0,0,2,0,0,3,19,1,2,17,1,3,19,0,23,3,0,19,0,0,0,0,2,4,17,11,7,0,2,10,0,21,1,9,11,5,0,0,0,0,0,0,0,0,0,0,0,0,0,0,0,0,0,0,0,0,0,0,0,0,0,0,0,0,0,0,0,0,0,0,0,0,0,0,0,0,0,0,0,0,0],"split_type":[0,0,0,0,0,0,0,0,0,0,0,0,0,0,0,0,0,0,0,0,0,0,0,0,0,0,0,0,0,0,0,0,0,0,0,0,0,0,0,0,0,0,0,0,0,0,0,0,0,0,0,0,0,0,0,0,0,0,0,0,0,0,0,0,0,0,0,0,0,0,0,0,0,0,0,0,0,0,0,0,0,0,0,0,0,0,0,0,0,0,0,0,0,0,0,0,0,0,0,0,0],"sum_hessian":[1.4477E4,4.298E3,1.0179E4,3.727E3,5.71E2,5.82E3,4.359E3,3.644E3,8.3E1,4E0,5.67E2,3.614E3,2.206E3,6.26E2,3.733E3,3.608E3,3.6E1,5.4E1,2.9E1,3E0,1E0,1E0,5.66E2,3E0,3.611E3,3E1,2.176E3,5.27E2,9.9E1,3.67E3,6.3E1,3.47E3,1.38E2,4E0,3.2E1,1.9E1,3.5E1,2.8E1,1E0,2E0,1E0,3E2,2.66E2,3.389E3,2.22E2,9E0,2.1E1,2.159E3,1.7E1,5.23E2,4E0,7.7E1,2.2E1,3.607E3,6.3E1,6.2E1,1E0,1.712E3,1.758E3,4.8E1,9E1,2E0,2E0,9E0,2.3E1,1.5E1,4E0,7E0,2.8E1,8E0,2E1,4.9E1,2.51E2,4.3E1,2.23E2,1.493E3,1.896E3,1.74E2,4.8E1,2E0,7E0,1.9E1,2E0,2.032E3,1.27E2,9E0,8E0,4.4E1,4.79E2,2E0,2E0,2.5E1,5.2E1,2.1E1,1E0,3.603E3,4E0,4.9E1,1.4E1,1.6E1,4.6E1],"tree_param":{"num_deleted":"0","num_feature":"24","num_nodes":"101","size_leaf_vector":"1"}},{"base_weights":[-2.7506868E-4,1.8787591E-3,-1.4363428E-2,3.2616453E-3,-1.5336779E-2,-2.9875591E-2,1.2122396E-3,-3.1382794E-4,8.126531E-3,-7.923259E-3,-6.967597E-2,-2.0017516E-2,-8.146849E-2,1.1184507E-2,-4.0570028E-2,-9.408825E-3,4.4089626E-3,9.967974E-3,-2.2457309E-2,-4.8806533E-2,-3.2345252E-4,-3.6003828E-2,-3.0280927E-1,-1.257965E-2,-6.1397977E-2,-3.436679E-2,-1.4053291E-1,1.5056164E-2,-8.546352E-2,-1.0741892E-2,-1.1465629E-1,1.6561711E-2,-1.6631296E-2,-6.0166925E-2,5.6305774E-3,8.22154E-3,2.7566917E-2,-3.8202234E-2,9.2585444E-2,-6.9185555E-2,1.38359E-1,1.019609E-2,-3.5561897E-2,-1.236747E-1,3.0765494E-2,-3.9355025E-1,2.2430733E-2,-3.2638617E-2,3.6774196E-2,-8.605327E-2,6.2454075E-2,-2.878444E-1,-1.2037037E-2,-6.2140416E-2,-5.889953E-1,-7.141101E-2,1.992693E-2,4.860036E-2,-3.584513E-1,5.918903E-3,-1.5278143E-1,-3.8298827E-1,-6.549733E-2,3.3695807E-3,3.1744502E-2,-4.543623E-3,-4.4279326E-2,-1.1623942E-2,-1.1468779E-1,1.0581982E-3,6.5215887E-3,3.403426E-3,-1.344941E-3,1.5207585E-2,-2.941632E-3,-7.918448E-3,-1.317771E-1,-2.2741605E-2,3.9412957E-2,-5.025466E-3,-4.4076703E-2,-6.6468865E-2,5.604482E-2,1.5931631E-3,3.06303E-2,6.671944E-3,-1.7098606E-2,2.5598736E-2,-5.4452676E-2,1.3440545E-2,-1.1329026E-1,-1.2344542E-1,-3.2130808E-2,-4.004048E-2,3.5665948E-2,-1.6073063E-2,5.6714104E-3,1.2460064E-2,-1.3583654E-1,1.7649582E-2,-3.401252E-2,1.2150864E-2,7.52217E-2,4.528664E-3,-1.5564696E-1,-1.4242414E-2,4.4116117E-2,-1.9291588E-3,-4.4717673E-2,2.5086783E-2,-2.0190662E-1,3.5737727E-2,-3.6830366E-2,3.2523233E-2,4.835535E-3,-3.2460157E-2,2.4223495E-2,-1.3969892E-1,-2.4365386E-2,-3.7353702E-2,4.162776E-3,-7.04408E-2,6.786921E-2,3.417451E-2,-1.4107442E-1,1.4951232E-2,-4.931161E-2],"categories":[],"categories_nodes":[],"categories_segments":[],"categories_sizes":[],"default_left":[0,0,0,0,0,0,0,0,0,0,0,0,0,0,0,0,0,0,0,0,0,0,0,0,0,0,0,0,0,0,0,0,0,0,0,0,0,0,0,0,0,0,0,0,0,0,0,0,0,0,0,0,0,0,0,0,0,0,0,0,0,0,0,0,0,0,0,0,0,0,0,0,0,0,0,0,0,0,0,0,0,0,0,0,0,0,0,0,0,0,0,0,0,0,0,0,0,0,0,0,0,0,0,0,0,0,0,0,0,0,0,0,0,0,0,0,0,0,0,0,0,0,0,0,0,0,0],"id":7,"left_children":[1,3,5,7,9,11,13,15,17,19,21,23,25,27,29,31,33,35,37,39,41,43,45,47,49,51,53,55,57,59,61,63,65,67,69,71,73,75,77,79,81,83,85,87,89,91,93,95,97,99,101,103,105,107,109,111,113,115,117,119,121,123,125,-1,-1,-1,-1,-1,-1,-1,-1,-1,-1,-1,-1,-1,-1,-1,-1,-1,-1,-1,-1,-1,-1,-1,-1,-1,-1,-1,-1,-1,-1,-1,-1,-1,-1,-1,-1,-1,-1,-1,-1,-1,-1,-1,-1,-1,-1,-1,-1,-1,-1,-1,-1,-1,-1,-1,-1,-1,-1,-1,-1,-1,-1,-1,-1],"loss_changes":[4.3934596E-1,2.9904374E-1,4.6393183E-1,2.0222828E-1,3.7570482E-1,4.8764896E-1,4.000345E-1,2.8791764E-1,2.7759212E-1,2.5569442E-1,8.6830866E-1,2.4822348E-1,4.2360365E-1,2.9128245E-1,4.0759152E-1,4.3000156E-1,3.4838763E-1,1.4256999E-1,5.10712E-1,5.0161076E-1,2.5799376E-1,5.833236E-1,4.2200387E-1,6.8132144E-1,3.809682E-1,4.8896325E-1,2.3540134E0,3.1560934E-1,1.1153549E0,3.1564766E-1,6.740342E-1,2.3618577E-1,3.4668437E-1,5.509939E-1,1.4665443E-1,1.6781539E-1,3.626123E-1,1.1580538E0,2.3204905E-1,4.7443676E-1,2.681213E-1,2.4012488E-1,1.9948997E-1,5.3525364E-1,3.436671E-1,1.24390125E-2,7.601701E-2,5.2875495E-1,4.8247573E-1,4.14398E-1,7.663901E-2,4.976409E-1,4.636436E-1,2.847324E-1,6.2145853E-1,4.0603969E-1,2.3650378E-1,1.14583045E-1,2.5940657E-1,1.2626892E-1,4.883382E-1,4.0044558E-1,5.327616E-1,0E0,0E0,0E0,0E0,0E0,0E0,0E0,0E0,0E0,0E0,0E0,0E0,0E0,0E0,0E0,0E0,0E0,0E0,0E0,0E0,0E0,0E0,0E0,0E0,0E0,0E0,0E0,0E0,0E0,0E0,0E0,0E0,0E0,0E0,0E0,0E0,0E0,0E0,0E0,0E0,0E0,0E0,0E0,0E0,0E0,0E0,0E0,0E0,0E0,0E0,0E0,0E0,0E0,0E0,0E0,0E0,0E0,0E0,0E0,0E0,0E0,0E0,0E0,0E0],"parents":[2147483647,0,0,1,1,2,2,3,3,4,4,5,5,6,6,7,7,8,8,9,9,10,10,11,11,12,12,13,13,14,14,15,15,16,16,17,17,18,18,19,19,20,20,21,21,22,22,23,23,24,24,25,25,26,26,27,27,28,28,29,29,30,30,31,31,32,32,33,33,34,34,35,35,36,36,37,37,38,38,39,39,40,40,41,41,42,42,43,43,44,44,45,45,46,46,47,47,48,48,49,49,50,50,51,51,52,52,53,53,54,54,55,55,56,56,57,57,58,58,59,59,60,60,61,61,62,62],"right_children":[2,4,6,8,10,12,14,16,18,20,22,24,26,28,30,32,34,36,38,40,42,44,46,48,50,52,54,56,58,60,62,64,66,68,70,72,74,76,78,80,82,84,86,88,90,92,94,96,98,100,102,104,106,108,110,112,114,116,118,120,122,124,126,-1,-1,-1,-1,-1,-1,-1,-1,-1,-1,-1,-1,-1,-1,-1,-1,-1,-1,-1,-1,-1,-1,-1,-1,-1,-1,-1,-1,-1,-1,-1,-1,-1,-1,-1,-1,-1,-1,-1,-1,-1,-1,-1,-1,-1,-1,-1,-1,-1,-1,-1,-1,-1,-1,-1,-1,-1,-1,-1,-1,-1,-1,-1,-1],"split_conditions":[3E0,5E0,3.6585367E-1,3.932136E4,2E0,7.777778E-1,1E0,2E0,9.6666664E-1,4.5454547E-2,9.310345E-1,2.9032257E-1,3E0,5.555556E-1,4.866913E8,1.8518518E-1,3.5E-1,2.03675E8,3.412697E8,1E0,9.5E-1,3.768116E-1,1E0,1.6129032E-1,4.7826087E-1,8E-1,1.411258E9,2.9413132E3,1E0,9.62963E-1,4.75E-1,4.2424244E-1,3.8958344E4,6.75E-1,9.230769E-1,8.2857144E-1,1.2224787E9,3.071946E8,3.5714287E-1,1.15384616E-1,-3E0,1.956242E9,-1E0,1.051789E3,1E1,3E0,9.5238096E-1,2.2299291E4,3.655914E-1,1.7619047E1,6.875E-1,6.25E-1,1.411258E9,4E0,-3E0,3.821138E-1,5.339727E3,6.666667E-1,5E0,6.345E2,1E0,7.1428575E-2,1.724138E-1,3.3695807E-3,3.1744502E-2,-4.543623E-3,-4.4279326E-2,-1.1623942E-2,-1.1468779E-1,1.0581982E-3,6.5215887E-3,3.403426E-3,-1.344941E-3,1.5207585E-2,-2.941632E-3,-7.918448E-3,-1.317771E-1,-2.2741605E-2,3.9412957E-2,-5.025466E-3,-4.4076703E-2,-6.6468865E-2,5.604482E-2,1.5931631E-3,3.06303E-2,6.671944E-3,-1.7098606E-2,2.5598736E-2,-5.4452676E-2,1.3440545E-2,-1.1329026E-1,-1.2344542E-1,-3.2130808E-2,-4.004048E-2,3.5665948E-2,-1.6073063E-2,5.6714104E-3,1.2460064E-2,-1.3583654E-1,1.7649582E-2,-3.401252E-2,1.2150864E-2,7.52217E-2,4.528664E-3,-1.5564696E-1,-1.4242414E-2,4.4116117E-2,-1.9291588E-3,-4.4717673E-2,2.5086783E-2,-2.0190662E-1,3.5737727E-2,-3.6830366E-2,3.2523233E-2,4.835535E-3,-3.2460157E-2,2.4223495E-2,-1.3969892E-1,-2.4365386E-2,-3.7353702E-2,4.162776E-3,-7.04408E-2,6.786921E-2,3.417451E-2,-1.4107442E-1,1.4951232E-2,-4.931161E-2],"split_indices":[3,19,1,0,9,2,17,5,2,2,2,11,23,1,0,2,10,0,0,17,10,1,12,11,11,2,0,0,15,2,10,1,0,2,2,2,0,0,1,11,9,0,9,0,15,9,2,0,1,0,11,10,0,23,9,1,0,1,3,0,22,11,11,0,0,0,0,0,0,0,0,0,0,0,0,0,0,0,0,0,0,0,0,0,0,0,0,0,0,0,0,0,0,0,0,0,0,0,0,0,0,0,0,0,0,0,0,0,0,0,0,0,0,0,0,0,0,0,0,0,0,0,0,0,0,0,0],"split_type":[0,0,0,0,0,0,0,0,0,0,0,0,0,0,0,0,0,0,0,0,0,0,0,0,0,0,0,0,0,0,0,0,0,0,0,0,0,0,0,0,0,0,0,0,0,0,0,0,0,0,0,0,0,0,0,0,0,0,0,0,0,0,0,0,0,0,0,0,0,0,0,0,0,0,0,0,0,0,0,0,0,0,0,0,0,0,0,0,0,0,0,0,0,0,0,0,0,0,0,0,0,0,0,0,0,0,0,0,0,0,0,0,0,0,0,0,0,0,0,0,0,0,0,0,0,0,0],"sum_hessian":[1.4477E4,1.2558E4,1.919E3,1.1625E4,9.33E2,9.61E2,9.58E2,6.701E3,4.924E3,8.22E2,1.11E2,8.08E2,1.53E2,7.74E2,1.84E2,2.29E3,4.411E3,4.645E3,2.79E2,1.28E2,6.94E2,9.8E1,1.3E1,6.86E2,1.22E2,8.6E1,6.7E1,7.45E2,2.9E1,1.32E2,5.2E1,4.98E2,1.792E3,8.1E1,4.33E3,4.227E3,4.18E2,2.46E2,3.3E1,1.16E2,1.2E1,5.35E2,1.59E2,4.2E1,5.6E1,1E1,3E0,4.88E2,1.98E2,1.02E2,2E1,6E0,8E1,5.8E1,9E0,3.9E1,7.06E2,2E1,9E0,1.19E2,1.3E1,7E0,4.5E1,4.71E2,2.7E1,1.773E3,1.9E1,7.7E1,4E0,3.831E3,4.99E2,3.393E3,8.34E2,2.58E2,1.6E2,2.4E2,6E0,6E0,2.7E1,7E1,4.6E1,1E0,1.1E1,5.09E2,2.6E1,4.3E1,1.16E2,9E0,3.3E1,5.5E1,1E0,9E0,1E0,1E0,2E0,3.47E2,1.41E2,1.97E2,1E0,1.6E1,8.6E1,1.9E1,1E0,3E0,3E0,6.6E1,1.4E1,3.6E1,2.2E1,1E0,8E0,8E0,3.1E1,2.8E1,6.78E2,3E0,1.7E1,6E0,3E0,6E0,1.13E2,1.1E1,2E0,1E0,6E0,2.1E1,2.4E1],"tree_param":{"num_deleted":"0","num_feature":"24","num_nodes":"127","size_leaf_vector":"1"}},{"base_weights":[-2.8152516E-4,6.0699857E-3,-3.2051776E-3,5.0310898E-3,5.8250066E-2,-1.8608926E-2,-1.0113714E-3,5.76813E-3,-9.7505644E-2,8.858803E-2,-9.732308E-2,1.1479538E-2,-2.4956133E-2,9.6791675E-3,-2.794429E-3,8.619647E-3,-7.5998046E-3,-3.7807885E-1,-3.8219965E-3,1.2629702E-2,1.263146E-1,-1.557714E-1,7.5282957E-3,-1.0248401E-2,1.01739295E-1,-2.9534604E-2,3.5800878E-2,1.0221481E-2,-9.941848E-2,-1.5502233E-2,-1.7372516E-4,5.0474215E-2,7.6713096E-3,-6.0483194E-3,-3.078516E-1,-1.9814314E-1,2.0831615E-2,-1.19443856E-1,6.804704E-2,4.8588313E-2,-1.1533039E-1,9.669323E-2,1.6591199E-1,-1.2508391E-1,7.764671E-2,2.9650802E-2,-9.784032E-2,3.6126801E-3,8.343791E-2,-2.8449265E-2,-1.0879707E-1,7.0367664E-2,-8.958085E-2,7.38438E-2,8.744444E-3,-1.4338272E-2,-1.609603E-1,9.158966E-3,-5.433667E-3,5.2376404E-2,1.2003487E-2,2.353462E-3,-6.0635846E-2,1.5559269E-3,-6.3333083E-3,3.442417E-2,-1.4609009E-1,8.936E-3,2.6334748E-2,4.0755835E-3,3.1131027E-2,-8.434698E-2,4.326441E-2,8.332972E-3,3.3636652E-2,5.0894074E-2,1.4242263E-2,2.8510515E-2,1.0288811E-2,1.3600115E-2,-1.7078295E-2,1.5565449E-2,-6.2123004E-2,2.9557256E-3,-1.0886658E-2,-5.5803186E-3,-1.7894192E-2,3.94339E-2,2.058758E-3,-6.4630665E-2,1.896098E-2,4.99248E-2,-5.243949E-3,-2.2288013E-2,2.974937E-3,-4.085841E-3,-7.1152955E-2,-6.891285E-2,2.2807289E-2,8.5427513E-4,9.773978E-3,-5.8907893E-4,-8.029805E-3],"categories":[],"categories_nodes":[],"categories_segments":[],"categories_sizes":[],"default_left":[0,0,0,0,0,0,0,0,0,0,0,0,0,0,0,0,0,0,0,0,0,0,0,0,0,0,0,0,0,0,0,0,0,0,0,0,0,0,0,0,0,0,0,0,0,0,0,0,0,0,0,0,0,0,0,0,0,0,0,0,0,0,0,0,0,0,0,0,0,0,0,0,0,0,0,0,0,0,0,0,0,0,0,0,0,0,0,0,0,0,0,0,0,0,0,0,0,0,0,0,0,0,0],"id":8,"left_children":[1,3,5,7,9,11,13,15,17,19,21,23,25,27,29,31,33,35,37,39,41,-1,43,45,47,49,51,53,-1,55,57,59,61,63,65,-1,-1,-1,67,69,71,73,75,-1,77,79,81,83,-1,85,-1,87,89,91,93,95,97,99,101,-1,-1,-1,-1,-1,-1,-1,-1,-1,-1,-1,-1,-1,-1,-1,-1,-1,-1,-1,-1,-1,-1,-1,-1,-1,-1,-1,-1,-1,-1,-1,-1,-1,-1,-1,-1,-1,-1,-1,-1,-1,-1,-1,-1],"loss_changes":[2.6887026E-1,2.4711983E-1,3.3503714E-1,3.3883035E-1,4.2868137E-1,2.3633492E-1,1.6548386E-1,1.6950396E-1,8.3967876E-1,2.1332818E-1,6.674844E-1,4.2465287E-1,2.8507334E-1,2.3293412E-1,2.4777451E-1,1.4504516E-1,3.6242196E-1,1.056888E0,7.3558515E-1,1.2523665E-1,4.260391E-2,0E0,4.192999E-1,6.1449933E-1,7.259425E-1,3.3315575E-1,3.1835473E-1,1.1588022E-1,0E0,2.1305132E-1,3.0288234E-1,9.819715E-2,1.320856E-1,1.3193627E-1,3.586539E-1,0E0,0E0,0E0,1.3997138E-2,3.9152376E-2,2.987832E-1,2.9848278E-2,7.932782E-4,0E0,5.7862327E-3,1.6687481E-1,9.102926E-1,7.328838E-3,0E0,2.9015845E-1,0E0,2.2019005E-1,3.2127374E-1,2.3962173E-1,1.1878748E-1,1.9907296E-1,1.8038848E-1,3.286559E-1,2.9204914E-1,0E0,0E0,0E0,0E0,0E0,0E0,0E0,0E0,0E0,0E0,0E0,0E0,0E0,0E0,0E0,0E0,0E0,0E0,0E0,0E0,0E0,0E0,0E0,0E0,0E0,0E0,0E0,0E0,0E0,0E0,0E0,0E0,0E0,0E0,0E0,0E0,0E0,0E0,0E0,0E0,0E0,0E0,0E0,0E0],"parents":[2147483647,0,0,1,1,2,2,3,3,4,4,5,5,6,6,7,7,8,8,9,9,10,10,11,11,12,12,13,13,14,14,15,15,16,16,17,17,18,18,19,19,20,20,22,22,23,23,24,24,25,25,26,26,27,27,29,29,30,30,31,31,32,32,33,33,34,34,38,38,39,39,40,40,41,41,42,42,44,44,45,45,46,46,47,47,49,49,51,51,52,52,53,53,54,54,55,55,56,56,57,57,58,58],"right_children":[2,4,6,8,10,12,14,16,18,20,22,24,26,28,30,32,34,36,38,40,42,-1,44,46,48,50,52,54,-1,56,58,60,62,64,66,-1,-1,-1,68,70,72,74,76,-1,78,80,82,84,-1,86,-1,88,90,92,94,96,98,100,102,-1,-1,-1,-1,-1,-1,-1,-1,-1,-1,-1,-1,-1,-1,-1,-1,-1,-1,-1,-1,-1,-1,-1,-1,-1,-1,-1,-1,-1,-1,-1,-1,-1,-1,-1,-1,-1,-1,-1,-1,-1,-1,-1,-1],"split_conditions":[1E0,3.071946E8,5.7152334E3,1.6586886E5,3.8709676E-1,7.5E-2,2.7272728E-1,1E0,6E-1,2E0,6.5E-1,1E0,4.4444445E-1,6.666667E-1,3.4848484E-1,1E0,2E0,3.902439E-1,1.3793103E-1,1E0,1.6444429E9,-1.557714E-1,3E0,1.7619047E1,5E-2,2E0,5.1666665E-1,6.019507E3,-9.941848E-2,2E0,1E0,1.8270958E3,5E0,6.25E-1,8.143333E2,-1.9814314E-1,2.0831615E-2,-1.19443856E-1,7.9310346E-1,1E0,7E0,5.6E-1,4.0151516E-1,-1.2508391E-1,0E0,6E0,0E0,9E0,8.343791E-2,1E0,-1.0879707E-1,1.9724603E3,1.15384616E-1,3.5333332E-1,1E-1,6E0,3E0,3E0,2.03675E8,5.2376404E-2,1.2003487E-2,2.353462E-3,-6.0635846E-2,1.5559269E-3,-6.3333083E-3,3.442417E-2,-1.4609009E-1,8.936E-3,2.6334748E-2,4.0755835E-3,3.1131027E-2,-8.434698E-2,4.326441E-2,8.332972E-3,3.3636652E-2,5.0894074E-2,1.4242263E-2,2.8510515E-2,1.0288811E-2,1.3600115E-2,-1.7078295E-2,1.5565449E-2,-6.2123004E-2,2.9557256E-3,-1.0886658E-2,-5.5803186E-3,-1.7894192E-2,3.94339E-2,2.058758E-3,-6.4630665E-2,1.896098E-2,4.99248E-2,-5.243949E-3,-2.2288013E-2,2.974937E-3,-4.085841E-3,-7.1152955E-2,-6.891285E-2,2.2807289E-2,8.5427513E-4,9.773978E-3,-5.8907893E-4,-8.029805E-3],"split_indices":[4,0,0,0,11,10,2,9,10,23,10,12,1,1,1,14,20,1,11,22,0,0,23,0,10,17,1,0,0,17,15,0,5,2,0,0,0,0,2,19,19,2,1,0,9,3,9,19,0,6,0,0,11,1,10,21,5,19,0,0,0,0,0,0,0,0,0,0,0,0,0,0,0,0,0,0,0,0,0,0,0,0,0,0,0,0,0,0,0,0,0,0,0,0,0,0,0,0,0,0,0,0,0],"split_type":[0,0,0,0,0,0,0,0,0,0,0,0,0,0,0,0,0,0,0,0,0,0,0,0,0,0,0,0,0,0,0,0,0,0,0,0,0,0,0,0,0,0,0,0,0,0,0,0,0,0,0,0,0,0,0,0,0,0,0,0,0,0,0,0,0,0,0,0,0,0,0,0,0,0,0,0,0,0,0,0,0,0,0,0,0,0,0,0,0,0,0,0,0,0,0,0,0,0,0,0,0,0,0],"sum_hessian":[1.4477E4,4.563E3,9.914E3,4.475E3,8.8E1,1.235E3,8.679E3,4.444E3,3.1E1,7.4E1,1.4E1,2.15E2,1.02E3,1.24E3,7.439E3,3.663E3,7.81E2,7E0,2.4E1,2.5E1,4.9E1,2E0,1.2E1,1.74E2,4.1E1,9.49E2,7.1E1,1.239E3,1E0,1.271E3,6.168E3,8E1,3.583E3,7.78E2,3E0,4E0,3E0,3E0,2.1E1,2E1,5E0,3E1,1.9E1,1E0,1.1E1,1.2E2,5.4E1,2.7E1,1.4E1,9.47E2,2E0,5.6E1,1.5E1,2.7E1,1.212E3,1.262E3,9E0,2.223E3,3.945E3,5E0,7.5E1,3.581E3,2E0,4.46E2,3.32E2,1E0,2E0,8E0,1.3E1,1.3E1,7E0,3E0,2E0,6E0,2.4E1,1.8E1,1E0,7E0,4E0,1.02E2,1.8E1,2.3E1,3.1E1,2.4E1,3E0,7.21E2,2.26E2,2.8E1,2.8E1,8E0,7E0,1.3E1,1.4E1,1.6E1,1.196E3,1.259E3,3E0,7E0,2E0,1.752E3,4.71E2,3.394E3,5.51E2],"tree_param":{"num_deleted":"0","num_feature":"24","num_nodes":"103","size_leaf_vector":"1"}},{"base_weights":[-2.535041E-4,1.9547826E-4,-3.136065E-2,-3.560732E-3,3.6090927E-3,-8.355814E-2,-1.3646906E-2,-1.7991569E-3,-2.5931947E-2,5.0942795E-3,-2.213935E-2,-1.3148762E-1,7.034471E-2,5.8627453E-2,-4.015459E-2,-6.786819E-3,4.242671E-3,2.5258867E-2,-4.3994274E-2,2.149359E-2,3.5203963E-3,-3.5768364E-2,6.598446E-2,-1.6549738E-2,-2.074233E-1,-1.7009106E-1,1.9610406E-1,1.05528146E-1,-2.4181683E-2,-1.9151796E-1,-2.3758903E-2,-3.9805616E-3,-3.4526996E-2,-2.4791546E-2,5.717967E-3,-6.768277E-3,1.15887515E-1,-9.262217E-2,-1.9699164E-2,3.0336777E-2,-5.9897155E-2,6.8082437E-3,-8.762767E-3,-5.2653616E-3,-1.5516531E-1,-1.5665796E-1,8.651833E-2,-9.866917E-2,1.5044741E-1,-7.085624E-2,-2.7127832E-1,-8.993903E-2,1.6311632E-2,6.437481E-3,2.152525E-1,7.1148716E-2,1.0705422E-1,-8.0780685E-2,1.658105E-1,-9.100254E-2,-4.777449E-2,-8.102545E-2,3.9991466E-3,-2.3153592E-3,9.692726E-3,-2.161073E-2,-4.6829265E-3,6.228465E-3,-2.119366E-2,4.770161E-4,6.6978163E-3,-3.65416E-2,6.295361E-3,4.429326E-2,-1.707531E-2,-6.134023E-2,-1.6178524E-2,-1.996254E-2,2.4693895E-3,-3.4324523E-2,1.0116447E-2,-3.2484068E-3,-9.272008E-2,1.4901108E-3,1.135182E-2,-6.4760016E-4,-1.4146443E-2,-3.23439E-3,4.915867E-2,9.478322E-3,-8.45563E-2,1.4834625E-2,-9.316361E-2,2.2610624E-3,3.8811225E-2,1.30459E-2,-7.4421726E-2,6.202018E-2,-1.9647771E-2,3.8518745E-2,-4.38383E-2,-9.69482E-2,-2.7751504E-2,-1.2048033E-2,1.9388268E-2,3.3931952E-2,7.6175645E-2,4.1009292E-2,-2.556899E-2,1.0792883E-2,-8.243612E-2,6.530785E-2,1.5245319E-3,-4.1270934E-2,6.0180288E-2,-1.5335207E-2,-8.776705E-2,-3.472909E-3,6.3573346E-2],"categories":[],"categories_nodes":[],"categories_segments":[],"categories_sizes":[],"default_left":[0,0,0,0,0,0,0,0,0,0,0,0,0,0,0,0,0,0,0,0,0,0,0,0,0,0,0,0,0,0,0,0,0,0,0,0,0,0,0,0,0,0,0,0,0,0,0,0,0,0,0,0,0,0,0,0,0,0,0,0,0,0,0,0,0,0,0,0,0,0,0,0,0,0,0,0,0,0,0,0,0,0,0,0,0,0,0,0,0,0,0,0,0,0,0,0,0,0,0,0,0,0,0,0,0,0,0,0,0,0,0,0,0,0,0,0,0,0,0],"id":9,"left_children":[1,3,5,7,9,11,13,15,17,19,21,23,25,27,29,31,33,35,37,39,41,43,45,47,49,51,53,55,57,59,61,63,65,67,69,71,73,75,77,79,81,83,85,87,89,91,93,95,97,99,101,-1,103,-1,105,107,-1,109,111,-1,113,115,117,-1,-1,-1,-1,-1,-1,-1,-1,-1,-1,-1,-1,-1,-1,-1,-1,-1,-1,-1,-1,-1,-1,-1,-1,-1,-1,-1,-1,-1,-1,-1,-1,-1,-1,-1,-1,-1,-1,-1,-1,-1,-1,-1,-1,-1,-1,-1,-1,-1,-1,-1,-1,-1,-1,-1,-1],"loss_changes":[2.02214E-1,1.8302487E-1,1.8932995E-1,2.67774E-1,2.8608084E-1,3.9282656E-1,2.9930717E-1,1.899069E-1,4.5972538E-1,1.8243107E-1,4.9238464E-1,3.4568268E-1,4.264372E-1,1.6567169E-1,2.783643E-1,2.6858723E-1,1.2221888E-1,3.7811932E-1,4.3175656E-1,4.4734454E-1,2.6066512E-1,1.2884388E0,2.649979E-1,2.4797761E-1,1.9007003E-1,1.2577762E-1,2.547881E-2,2.0789647E-1,1.8544817E-1,1.6232139E-1,1.6564323E-1,4.255705E-1,2.2380683E-1,2.897199E-1,1.8595897E-1,3.1223843E-1,1.9498602E-1,5.1695454E-1,3.223985E-1,2.7773654E-1,7.4247265E-1,2.9068542E-1,3.4547988E-1,2.6577654E-1,1.7124538E0,1.7394221E-1,1.7163676E-1,2.6564962E-1,8.646661E-2,1.5374406E-1,1.18508816E-1,0E0,1.07809035E-2,0E0,2.876997E-3,2.679121E-1,0E0,3.0435658E-1,3.2249637E-2,0E0,1.6141428E-1,2.0014632E-1,2.3237495E-1,0E0,0E0,0E0,0E0,0E0,0E0,0E0,0E0,0E0,0E0,0E0,0E0,0E0,0E0,0E0,0E0,0E0,0E0,0E0,0E0,0E0,0E0,0E0,0E0,0E0,0E0,0E0,0E0,0E0,0E0,0E0,0E0,0E0,0E0,0E0,0E0,0E0,0E0,0E0,0E0,0E0,0E0,0E0,0E0,0E0,0E0,0E0,0E0,0E0,0E0,0E0,0E0,0E0,0E0,0E0,0E0],"parents":[2147483647,0,0,1,1,2,2,3,3,4,4,5,5,6,6,7,7,8,8,9,9,10,10,11,11,12,12,13,13,14,14,15,15,16,16,17,17,18,18,19,19,20,20,21,21,22,22,23,23,24,24,25,25,26,26,27,27,28,28,29,29,30,30,31,31,32,32,33,33,34,34,35,35,36,36,37,37,38,38,39,39,40,40,41,41,42,42,43,43,44,44,45,45,46,46,47,47,48,48,49,49,50,50,52,52,54,54,55,55,57,57,58,58,60,60,61,61,62,62],"right_children":[2,4,6,8,10,12,14,16,18,20,22,24,26,28,30,32,34,36,38,40,42,44,46,48,50,52,54,56,58,60,62,64,66,68,70,72,74,76,78,80,82,84,86,88,90,92,94,96,98,100,102,-1,104,-1,106,108,-1,110,112,-1,114,116,118,-1,-1,-1,-1,-1,-1,-1,-1,-1,-1,-1,-1,-1,-1,-1,-1,-1,-1,-1,-1,-1,-1,-1,-1,-1,-1,-1,-1,-1,-1,-1,-1,-1,-1,-1,-1,-1,-1,-1,-1,-1,-1,-1,-1,-1,-1,-1,-1,-1,-1,-1,-1,-1,-1,-1,-1],"split_conditions":[1E1,3.1668695E4,8E-2,2E0,9.677419E-1,1.2224787E9,1.324E3,1E0,9.375E-2,6.25E-2,3.412697E8,1.1E1,1E-1,1.724138E-1,4.5454547E-2,1E0,2E-1,3E0,1E0,4E0,2E0,2.13619E5,3.5714287E-1,3E0,3.3333334E-1,3.4108528E-1,3.1034482E-1,6E0,4.3333334E-1,1E-1,1E0,9.25E-1,3.1034482E-1,5.2380955E-1,8.1578946E-1,1.25E-1,1E0,2E0,1.1275091E4,1.3333334E-1,8.947368E-1,2.03675E8,1.6444429E9,7E0,3.968254E-1,3.4108528E-1,1.7857143E-1,1E0,1E0,1E0,1.2E1,-8.993903E-2,3.2759168E9,6.437481E-3,5.75E-1,2E0,1.0705422E-1,2.8839825E2,6E0,-9.100254E-2,4E0,2E0,2E0,-2.3153592E-3,9.692726E-3,-2.161073E-2,-4.6829265E-3,6.228465E-3,-2.119366E-2,4.770161E-4,6.6978163E-3,-3.65416E-2,6.295361E-3,4.429326E-2,-1.707531E-2,-6.134023E-2,-1.6178524E-2,-1.996254E-2,2.4693895E-3,-3.4324523E-2,1.0116447E-2,-3.2484068E-3,-9.272008E-2,1.4901108E-3,1.135182E-2,-6.4760016E-4,-1.4146443E-2,-3.23439E-3,4.915867E-2,9.478322E-3,-8.45563E-2,1.4834625E-2,-9.316361E-2,2.2610624E-3,3.8811225E-2,1.30459E-2,-7.4421726E-2,6.202018E-2,-1.9647771E-2,3.8518745E-2,-4.38383E-2,-9.69482E-2,-2.7751504E-2,-1.2048033E-2,1.9388268E-2,3.3931952E-2,7.6175645E-2,4.1009292E-2,-2.556899E-2,1.0792883E-2,-8.243612E-2,6.530785E-2,1.5245319E-3,-4.1270934E-2,6.0180288E-2,-1.5335207E-2,-8.776705E-2,-3.472909E-3,6.3573346E-2],"split_indices":[19,0,11,9,2,0,0,13,11,11,0,19,10,11,2,10,6,9,21,15,3,0,1,23,6,1,2,3,11,10,5,2,11,2,2,10,6,19,0,2,2,0,0,15,1,1,11,22,12,7,19,0,0,0,2,21,0,0,3,0,3,9,22,0,0,0,0,0,0,0,0,0,0,0,0,0,0,0,0,0,0,0,0,0,0,0,0,0,0,0,0,0,0,0,0,0,0,0,0,0,0,0,0,0,0,0,0,0,0,0,0,0,0,0,0,0,0,0,0],"split_type":[0,0,0,0,0,0,0,0,0,0,0,0,0,0,0,0,0,0,0,0,0,0,0,0,0,0,0,0,0,0,0,0,0,0,0,0,0,0,0,0,0,0,0,0,0,0,0,0,0,0,0,0,0,0,0,0,0,0,0,0,0,0,0,0,0,0,0,0,0,0,0,0,0,0,0,0,0,0,0,0,0,0,0,0,0,0,0,0,0,0,0,0,0,0,0,0,0,0,0,0,0,0,0,0,0,0,0,0,0,0,0,0,0,0,0,0,0,0,0],"sum_hessian":[1.4477E4,1.4272E4,2.05E2,6.795E3,7.477E3,5.1E1,1.54E2,6.3E3,4.95E2,7.07E3,4.07E2,3.9E1,1.2E1,4.1E1,1.13E2,3.451E3,2.849E3,1.29E2,3.66E2,6.18E2,6.452E3,3.53E2,5.4E1,1.6E1,2.3E1,4E0,8E0,2.6E1,1.5E1,1E1,1.03E2,3.135E3,3.16E2,1.37E2,2.712E3,9.6E1,3.3E1,1.21E2,2.45E2,5.58E2,6E1,5.09E3,1.362E3,2.82E2,7.1E1,4E0,5E1,1.1E1,5E0,8E0,1.5E1,2E0,2E0,1E0,7E0,2.4E1,2E0,1.2E1,3E0,5E0,5E0,3.3E1,7E1,2.843E3,2.92E2,1.05E2,2.11E2,6.9E1,6.8E1,2.173E3,5.39E2,1.8E1,7.8E1,2.8E1,5E0,3E1,9.1E1,9.1E1,1.54E2,1.2E1,5.46E2,5.1E1,9E0,4.806E3,2.84E2,1.163E3,1.99E2,2.74E2,8E0,2.9E1,4.2E1,2E0,2E0,1.8E1,3.2E1,6E0,5E0,4E0,1E0,2E0,6E0,1.1E1,4E0,1E0,1E0,3E0,4E0,1.7E1,7E0,8E0,4E0,2E0,1E0,4E0,1E0,3E1,3E0,6.6E1,4E0],"tree_param":{"num_deleted":"0","num_feature":"24","num_nodes":"119","size_leaf_vector":"1"}},{"base_weights":[-2.0686685E-4,-2.9464997E-4,9.74914E-2,-1.2989356E-3,7.979031E-3,3.6142003E-2,1.3131702E-1,-1.199005E-3,-1.6219962E-1,1.15321595E-2,-2.8294493E-2,6.3552265E-4,1.2756912E-2,6.223437E-2,4.4148933E-2,-1.488166E-2,-1.4278821E-4,-1.0753075E-3,-1.2911452E-1,1.3780049E-2,-3.9911933E-2,3.0719819E-2,-8.287913E-2,1.8460363E-2,2.2035483E-2,-4.398503E-3,-5.789043E-2,-3.7181875E-5,-1.14962295E-1,-1.746626E-2,2.1997977E-2,1.202923E-2,8.011756E-2,5.467131E-3,-2.6735395E-1,3.9835874E-2,-5.4021996E-2,-2.4053046E-1,-4.139356E-2,8.143563E-3,1.955104E-3,-3.7813515E-3,2.136058E-2,-2.5339205E-2,1.230912E-2,3.973859E-4,-2.54656E-3,-6.967852E-3,-8.0908194E-2,-3.7560046E-3,1.0127244E-2,3.8961146E-3,-4.450576E-2,5.1824138E-2,1.767632E-2,5.731703E-3,-1.0146901E-1,-2.865554E-2,-1.5036829E-1,1.4219286E-2,-6.775163E-2,4.9948715E-2,-1.068485E-1,-1.0207141E-1,-5.792506E-3],"categories":[],"categories_nodes":[],"categories_segments":[],"categories_sizes":[],"default_left":[0,0,0,0,0,0,0,0,0,0,0,0,0,0,0,0,0,0,0,0,0,0,0,0,0,0,0,0,0,0,0,0,0,0,0,0,0,0,0,0,0,0,0,0,0,0,0,0,0,0,0,0,0,0,0,0,0,0,0,0,0,0,0,0,0],"id":10,"left_children":[1,3,5,7,9,11,13,15,17,19,21,-1,-1,-1,23,25,27,29,-1,31,33,35,37,39,-1,41,43,45,47,-1,49,51,53,55,57,59,-1,61,63,-1,-1,-1,-1,-1,-1,-1,-1,-1,-1,-1,-1,-1,-1,-1,-1,-1,-1,-1,-1,-1,-1,-1,-1,-1,-1],"loss_changes":[1.2419581E-1,1.2021037E-1,2.2231296E-2,2.0723931E-1,2.021594E-1,1.2125531E-3,4.3930843E-2,1.8634005E-1,3.4522247E-1,1.655692E-1,4.5352456E-1,0E0,0E0,0E0,2.4077753E-3,4.163471E-1,1.451521E-1,9.191955E-3,0E0,1.5792263E-1,6.207281E-1,1.3784227E-1,4.6748227E-1,2.3799879E-4,0E0,4.6245813E-1,4.7925687E-1,1.3767114E-1,1.4987537E-1,0E0,2.4522159E-3,2.068512E-1,5.8541313E-2,2.4552608E-1,3.540014E-1,1.432958E-1,0E0,7.6527315E-1,3.8283306E-1,0E0,0E0,0E0,0E0,0E0,0E0,0E0,0E0,0E0,0E0,0E0,0E0,0E0,0E0,0E0,0E0,0E0,0E0,0E0,0E0,0E0,0E0,0E0,0E0,0E0,0E0],"parents":[2147483647,0,0,1,1,2,2,3,3,4,4,5,5,6,6,7,7,8,8,9,9,10,10,14,14,15,15,16,16,17,17,19,19,20,20,21,21,22,22,23,23,25,25,26,26,27,27,28,28,30,30,31,31,32,32,33,33,34,34,35,35,37,37,38,38],"right_children":[2,4,6,8,10,12,14,16,18,20,22,-1,-1,-1,24,26,28,30,-1,32,34,36,38,40,-1,42,44,46,48,-1,50,52,54,56,58,60,-1,62,64,-1,-1,-1,-1,-1,-1,-1,-1,-1,-1,-1,-1,-1,-1,-1,-1,-1,-1,-1,-1,-1,-1,-1,-1,-1,-1],"split_conditions":[7E0,4.1025642E-1,5E-2,5E0,9.62963E-1,-1E0,3.7301588E-1,1.75E-1,8.275306E4,4.5454547E-1,1.8656998E5,6.3552265E-4,1.2756912E-2,6.223437E-2,4.0625E-1,2E0,8E0,8.143333E2,-1.2911452E-1,4.1379312E-1,9.25E-1,2E0,2E0,3.902439E-1,2.2035483E-2,1E0,4E0,1E0,3E0,-1.746626E-2,4.0151516E-1,4.090909E-1,1.8190412E4,6.666667E-1,5.4937504E4,6E0,-5.4021996E-2,4.2222223E-1,3.125E-2,8.143563E-3,1.955104E-3,-3.7813515E-3,2.136058E-2,-2.5339205E-2,1.230912E-2,3.973859E-4,-2.54656E-3,-6.967852E-3,-8.0908194E-2,-3.7560046E-3,1.0127244E-2,3.8961146E-3,-4.450576E-2,5.1824138E-2,1.767632E-2,5.731703E-3,-1.0146901E-1,-2.865554E-2,-1.5036829E-1,1.4219286E-2,-6.775163E-2,4.9948715E-2,-1.068485E-1,-1.0207141E-1,-5.792506E-3],"split_indices":[3,1,10,15,2,9,1,10,0,11,0,0,0,0,1,5,16,0,0,11,2,17,23,1,0,12,19,17,19,0,1,11,0,1,0,8,0,1,11,0,0,0,0,0,0,0,0,0,0,0,0,0,0,0,0,0,0,0,0,0,0,0,0,0,0],"split_type":[0,0,0,0,0,0,0,0,0,0,0,0,0,0,0,0,0,0,0,0,0,0,0,0,0,0,0,0,0,0,0,0,0,0,0,0,0,0,0,0,0,0,0,0,0,0,0,0,0,0,0,0,0,0,0,0,0,0,0,0,0,0,0,0,0],"sum_hessian":[1.4477E4,1.4465E4,1.2E1,1.29E4,1.565E3,5E0,7E0,1.2893E4,7E0,1.426E3,1.39E2,1E0,4E0,3E0,4E0,9.23E2,1.197E4,5E0,2E0,1.367E3,5.9E1,6.7E1,7.2E1,3E0,1E0,7.43E2,1.8E2,1.196E4,1E1,1E0,4E0,1.333E3,3.4E1,5E1,9E0,6.5E1,2E0,1.4E1,5.8E1,1E0,2E0,6.71E2,7.2E1,1.42E2,3.8E1,1.0301E4,1.659E3,7E0,3E0,1E0,3E0,1.326E3,7E0,5E0,2.9E1,4.9E1,1E0,6E0,3E0,6.4E1,1E0,3E0,1.1E1,3E0,5.5E1],"tree_param":{"num_deleted":"0","num_feature":"24","num_nodes":"65","size_leaf_vector":"1"}},{"base_weights":[-1.8874272E-4,-1.2618663E-4,-1.2949201E-1,-3.2846574E-4,3.923521E-2,-1.1085391E-2,-1.7463759E-1,-3.0228382E-3,2.1469542E-3,-2.0987378E-2,5.756453E-2,-1.0400677E-2,5.4122508E-3,-6.007647E-2,-1.0825245E-2,-1.0698463E-3,-1.5532584E-2,4.174804E-3,-7.401764E-3,-1.2053809E-1,3.8832817E-2,3.512109E-2,9.732884E-2,-3.6580611E-3,1.2910995E-2,-9.533013E-2,-1.4539865E-2,3.801841E-3,7.583967E-2,-1.780034E-1,-6.35267E-3,-1.5776032E-1,1.5419296E-2,7.5200915E-2,2.1126184E-3,-2.8464139E-2,5.0397243E-2,1.1533313E-1,6.779123E-2,-3.2956698E-3,3.1702383E-4,3.4630941E-3,3.2605197E-2,-1.1192065E-1,-4.1254517E-3,1.2712696E-3,-1.2398044E-2,1.0626127E-2,5.2559312E-2,-1.2039025E-1,1.0870562E-2,-4.915382E-3,2.620846E-3,-5.7540935E-2,-1.7934948E-2,2.4509137E-2,6.4079855E-3,-1.6685355E-2,1.0898513E-2,-1.7424421E-2,2.7675033E-4,2.4810156E-2,1.1800931E-2,3.8135175E-2,1.246093E-2,1.0455996E-2,2.5182286E-2],"categories":[],"categories_nodes":[],"categories_segments":[],"categories_sizes":[],"default_left":[0,0,0,0,0,0,0,0,0,0,0,0,0,0,0,0,0,0,0,0,0,0,0,0,0,0,0,0,0,0,0,0,0,0,0,0,0,0,0,0,0,0,0,0,0,0,0,0,0,0,0,0,0,0,0,0,0,0,0,0,0,0,0,0,0,0,0],"id":11,"left_children":[1,3,5,7,9,11,13,15,17,19,21,-1,-1,-1,-1,23,25,27,29,31,33,35,37,39,41,-1,43,45,47,49,51,53,-1,55,57,59,61,63,65,-1,-1,-1,-1,-1,-1,-1,-1,-1,-1,-1,-1,-1,-1,-1,-1,-1,-1,-1,-1,-1,-1,-1,-1,-1,-1,-1,-1],"loss_changes":[1.1709195E-1,1.1523878E-1,3.548281E-2,9.604354E-2,8.2892224E-2,2.686154E-3,1.0520816E-2,1.684381E-1,1.4535294E-1,1.1187341E-1,4.7451243E-2,0E0,0E0,0E0,0E0,2.1589327E-1,2.7471137E-1,1.6518673E-1,2.3422416E-1,5.2907325E-2,1.5866453E-2,3.834534E-2,2.8174967E-3,1.7392509E-1,1.2079543E-1,0E0,2.5745136E-1,1.2130315E-1,1.2230569E-1,3.9725262E-1,1.9813523E-1,8.54589E-3,0E0,3.5352632E-4,1.5847547E-2,7.0163957E-3,7.823169E-3,4.2859316E-3,2.3937635E-3,0E0,0E0,0E0,0E0,0E0,0E0,0E0,0E0,0E0,0E0,0E0,0E0,0E0,0E0,0E0,0E0,0E0,0E0,0E0,0E0,0E0,0E0,0E0,0E0,0E0,0E0,0E0,0E0],"parents":[2147483647,0,0,1,1,2,2,3,3,4,4,5,5,6,6,7,7,8,8,9,9,10,10,15,15,16,16,17,17,18,18,19,19,20,20,21,21,22,22,23,23,24,24,26,26,27,27,28,28,29,29,30,30,31,31,33,33,34,34,35,35,36,36,37,37,38,38],"right_children":[2,4,6,8,10,12,14,16,18,20,22,-1,-1,-1,-1,24,26,28,30,32,34,36,38,40,42,-1,44,46,48,50,52,54,-1,56,58,60,62,64,66,-1,-1,-1,-1,-1,-1,-1,-1,-1,-1,-1,-1,-1,-1,-1,-1,-1,-1,-1,-1,-1,-1,-1,-1,-1,-1,-1,-1],"split_conditions":[2.1E1,2E0,3.9814815E-1,3.1668695E4,1E0,4.355541E3,1.2224787E9,2E0,3E0,6.25E-1,5.4901963E-1,-1.0400677E-2,5.4122508E-3,-6.007647E-2,-1.0825245E-2,3.7209302E-1,2.25E-1,8E0,9.52381E-2,1.6452088E4,3.1173553E4,0E0,1E0,5E-1,9.7619045E-1,-9.533013E-2,0E0,6E0,9.62963E-1,3.3333334E-1,3E0,2.1875E-1,1.5419296E-2,2.2299291E4,4.034572E4,2E-1,4E0,3.4375E-1,8.5714287E-1,-3.2956698E-3,3.1702383E-4,3.4630941E-3,3.2605197E-2,-1.1192065E-1,-4.1254517E-3,1.2712696E-3,-1.2398044E-2,1.0626127E-2,5.2559312E-2,-1.2039025E-1,1.0870562E-2,-4.915382E-3,2.620846E-3,-5.7540935E-2,-1.7934948E-2,2.4509137E-2,6.4079855E-3,-1.6685355E-2,1.0898513E-2,-1.7424421E-2,2.7675033E-4,2.4810156E-2,1.1800931E-2,3.8135175E-2,1.246093E-2,1.0455996E-2,2.5182286E-2],"split_indices":[19,7,1,0,19,0,0,15,19,10,2,0,0,0,0,1,10,15,2,0,0,9,15,6,2,0,4,15,2,6,8,11,0,0,0,6,23,11,2,0,0,0,0,0,0,0,0,0,0,0,0,0,0,0,0,0,0,0,0,0,0,0,0,0,0,0,0],"split_type":[0,0,0,0,0,0,0,0,0,0,0,0,0,0,0,0,0,0,0,0,0,0,0,0,0,0,0,0,0,0,0,0,0,0,0,0,0,0,0,0,0,0,0,0,0,0,0,0,0,0,0,0,0,0,0,0,0,0,0,0,0,0,0,0,0,0,0],"sum_hessian":[1.4477E4,1.4471E4,6E0,1.4398E4,7.3E1,2E0,4E0,6.894E3,7.504E3,1.7E1,5.6E1,1E0,1E0,3E0,1E0,5.964E3,9.3E2,6.19E3,1.314E3,6E0,1.1E1,3.7E1,1.9E1,5.033E3,9.31E2,2E0,9.28E2,6.159E3,3.1E1,7E0,1.307E3,5E0,1E0,5E0,6E0,7E0,3E1,1E1,9E0,1.97E3,3.063E3,9.19E2,1.2E1,1E0,9.27E2,6.101E3,5.8E1,2.3E1,8E0,3E0,4E0,7.85E2,5.22E2,3E0,2E0,4E0,1E0,2E0,4E0,3E0,4E0,6E0,2.4E1,8E0,2E0,4E0,5E0],"tree_param":{"num_deleted":"0","num_feature":"24","num_nodes":"67","size_leaf_vector":"1"}},{"base_weights":[-1.4890962E-4,-5.7960224E-5,-6.275831E-2,-9.692252E-5,4.2226963E-2,5.536881E-2,-8.552221E-2,3.6431453E-3,-1.5021082E-3,-1.5087962E-3,2.315339E-2,-1.1244261E-1,3.680985E-2,-4.824942E-3,8.850655E-3,2.6534687E-4,-9.458571E-3,-5.557404E-2,-6.912775E-2,-3.4027506E-2,3.7408944E-2,3.715338E-3,-1.8865148E-2,3.9069504E-2,7.464478E-3,-3.292164E-4,5.9823476E-2,-2.0765327E-2,8.685177E-3,-1.05581366E-1,2.1061413E-2,-6.819736E-4,1.299507E-2,-2.601447E-2,-1.8312053E-3,1.9568132E-2,-4.1805238E-2,5.823851E-3,1.110375E-3,-9.891737E-3,1.4280144E-4,3.1680796E-2,-1.626141E-3,-1.3350855E-2,-2.7910187E-3,-6.7195594E-2,3.176474E-3,-4.0698867E-2,-3.0673607E-3,-2.0610154E-2,2.2164667E-2],"categories":[],"categories_nodes":[],"categories_segments":[],"categories_sizes":[],"default_left":[0,0,0,0,0,0,0,0,0,0,0,0,0,0,0,0,0,0,0,0,0,0,0,0,0,0,0,0,0,0,0,0,0,0,0,0,0,0,0,0,0,0,0,0,0,0,0,0,0,0,0],"id":12,"left_children":[1,3,5,7,-1,9,11,13,15,-1,-1,17,19,21,23,25,27,-1,29,-1,-1,31,33,35,37,39,41,43,45,47,49,-1,-1,-1,-1,-1,-1,-1,-1,-1,-1,-1,-1,-1,-1,-1,-1,-1,-1,-1,-1],"loss_changes":[8.243826E-2,7.933682E-2,6.1204985E-2,7.597358E-2,0E0,5.6570806E-3,6.341709E-2,1.7414019E-1,1.4777325E-1,0E0,0E0,3.449686E-2,6.695824E-2,1.8041067E-1,1.0212618E-1,3.0451953E-1,3.9201102E-1,0E0,3.838863E-2,0E0,0E0,2.2207764E-1,4.9213338E-1,5.084635E-1,1.0509986E-1,2.238327E-1,2.5445163E-1,3.1982154E-1,3.273781E-1,2.1560736E-2,2.4040934E-2,0E0,0E0,0E0,0E0,0E0,0E0,0E0,0E0,0E0,0E0,0E0,0E0,0E0,0E0,0E0,0E0,0E0,0E0,0E0,0E0],"parents":[2147483647,0,0,1,1,2,2,3,3,5,5,6,6,7,7,8,8,11,11,12,12,13,13,14,14,15,15,16,16,18,18,21,21,22,22,23,23,24,24,25,25,26,26,27,27,28,28,29,29,30,30],"right_children":[2,4,6,8,-1,10,12,14,16,-1,-1,18,20,22,24,26,28,-1,30,-1,-1,32,34,36,38,40,42,44,46,48,50,-1,-1,-1,-1,-1,-1,-1,-1,-1,-1,-1,-1,-1,-1,-1,-1,-1,-1,-1,-1],"split_conditions":[1.6E1,3E0,1E0,2.7272728E-1,4.2226963E-2,1E-1,2.9032257E-1,4.079693E3,1E0,-1.5087962E-3,2.315339E-2,1E0,3.4108528E-1,1.9724603E3,1.25E-1,8E0,3E0,-5.557404E-2,4E0,-3.4027506E-2,3.7408944E-2,7E0,2.25E-1,4E0,1.0344828E-1,7.679537E3,1E1,2.7743127E4,2.75E-1,1.2224787E9,9.5E-1,-6.819736E-4,1.299507E-2,-2.601447E-2,-1.8312053E-3,1.9568132E-2,-4.1805238E-2,5.823851E-3,1.110375E-3,-9.891737E-3,1.4280144E-4,3.1680796E-2,-1.626141E-3,-1.3350855E-2,-2.7910187E-3,-6.7195594E-2,3.176474E-3,-4.0698867E-2,-3.0673607E-3,-2.0610154E-2,2.2164667E-2],"split_indices":[19,17,3,2,0,2,11,0,20,0,0,9,1,0,10,19,8,0,8,0,0,19,10,23,11,0,19,0,2,0,10,0,0,0,0,0,0,0,0,0,0,0,0,0,0,0,0,0,0,0,0],"split_type":[0,0,0,0,0,0,0,0,0,0,0,0,0,0,0,0,0,0,0,0,0,0,0,0,0,0,0,0,0,0,0,0,0,0,0,0,0,0,0,0,0,0,0,0,0,0,0,0,0,0,0],"sum_hessian":[1.4477E4,1.4457E4,2E1,1.4454E4,3E0,3E0,1.7E1,3.947E3,1.0507E4,1E0,2E0,1.4E1,3E0,1.503E3,2.444E3,8.598E3,1.909E3,4E0,1E1,1E0,2E0,9.35E2,5.68E2,1.06E2,2.338E3,8.514E3,8.4E1,1.176E3,7.33E2,7E0,3E0,8.13E2,1.22E2,8.9E1,4.79E2,9.3E1,1.3E1,5.59E2,1.779E3,2.04E2,8.31E3,4.9E1,3.5E1,3.82E2,7.94E2,5E0,7.28E2,5E0,2E0,1E0,2E0],"tree_param":{"num_deleted":"0","num_feature":"24","num_nodes":"51","size_leaf_vector":"1"}},{"base_weights":[-1.1261177E-4,-1.8357416E-4,7.886081E-2,9.171453E-5,-1.9334713E-2,5.6568995E-2,5.1954392E-2,-1.2777223E-4,4.335067E-2,-1.1021554E-2,-9.568037E-2,6.736837E-2,1.7147263E-3,-4.0007502E-4,2.2741536E-2,7.100941E-2,-5.0310526E-2,-4.034391E-2,2.280899E-2,-1.4305514E-1,1.2737806E-2,4.524432E-2,3.117292E-2,-9.1472274E-4,1.6863496E-3,-2.0718339E-4,-3.94115E-2,7.3421327E-3,9.892634E-2,-5.2000545E-3,9.901776E-2,4.9846344E-2,-1.692178E-1,-2.4792643E-3,-9.047892E-2,6.8843156E-2,-1.6028004E-2,-4.174759E-2,-1.946985E-1,1.3009304E-2,-8.185679E-3,2.9922068E-2,1.8242218E-2,-4.2979725E-4,1.3507762E-3,2.9938722E-2,-3.2008696E-2,5.57573E-3,-5.415031E-2,3.7287507E-2,1.5223197E-3,1.0144492E-2,-8.8563815E-2,2.3239601E-2,8.370343E-2,-2.1554071E-2,2.6775157E-2,-8.996315E-2,4.4552065E-2,-1.6544642E-2,1.8010719E-2,-4.722307E-2,6.3438034E-3,3.450918E-2,-4.7413837E-3,-2.9987624E-2,2.6068578E-3,-2.6824532E-2,1.0717487E-2,-7.598849E-2,-2.9148713E-2,5.059746E-3,-5.5995025E-3,9.999612E-3,1.930833E-3],"categories":[],"categories_nodes":[],"categories_segments":[],"categories_sizes":[],"default_left":[0,0,0,0,0,0,0,0,0,0,0,0,0,0,0,0,0,0,0,0,0,0,0,0,0,0,0,0,0,0,0,0,0,0,0,0,0,0,0,0,0,0,0,0,0,0,0,0,0,0,0,0,0,0,0,0,0,0,0,0,0,0,0,0,0,0,0,0,0,0,0,0,0,0,0],"id":13,"left_children":[1,3,5,7,9,11,-1,13,15,17,19,21,23,25,27,29,31,33,35,37,39,41,-1,-1,-1,43,45,47,49,51,53,55,57,59,61,63,65,67,69,-1,71,73,-1,-1,-1,-1,-1,-1,-1,-1,-1,-1,-1,-1,-1,-1,-1,-1,-1,-1,-1,-1,-1,-1,-1,-1,-1,-1,-1,-1,-1,-1,-1,-1,-1],"loss_changes":[8.115125E-2,7.626786E-2,1.753679E-2,1.3541992E-1,1.2905356E-1,6.9931857E-3,0E0,8.838179E-2,1.900922E-1,1.8543057E-1,1.0454796E-1,3.3831075E-3,7.296786E-5,1.05529636E-1,1.9519815E-1,1.2004694E-1,2.1089436E-1,1.8961014E-1,1.5664452E-1,6.5117866E-2,4.840664E-3,8.820556E-5,0E0,0E0,0E0,8.0562085E-2,6.5693223E-1,2.990403E-1,6.6025704E-2,1.9102022E-1,1.3743764E-1,5.4364596E-2,3.7664348E-1,1.9428378E-1,3.2459024E-1,1.5820451E-1,1.0044749E-1,2.535189E-2,2.682671E-2,0E0,1.6274153E-3,2.6599038E-4,0E0,0E0,0E0,0E0,0E0,0E0,0E0,0E0,0E0,0E0,0E0,0E0,0E0,0E0,0E0,0E0,0E0,0E0,0E0,0E0,0E0,0E0,0E0,0E0,0E0,0E0,0E0,0E0,0E0,0E0,0E0,0E0,0E0],"parents":[2147483647,0,0,1,1,2,2,3,3,4,4,5,5,7,7,8,8,9,9,10,10,11,11,12,12,13,13,14,14,15,15,16,16,17,17,18,18,19,19,20,20,21,21,25,25,26,26,27,27,28,28,29,29,30,30,31,31,32,32,33,33,34,34,35,35,36,36,37,37,38,38,40,40,41,41],"right_children":[2,4,6,8,10,12,-1,14,16,18,20,22,24,26,28,30,32,34,36,38,40,42,-1,-1,-1,44,46,48,50,52,54,56,58,60,62,64,66,68,70,-1,72,74,-1,-1,-1,-1,-1,-1,-1,-1,-1,-1,-1,-1,-1,-1,-1,-1,-1,-1,-1,-1,-1,-1,-1,-1,-1,-1,-1,-1,-1,-1,-1,-1,-1],"split_conditions":[7E0,1E1,1E0,9E0,5.1666665E-1,1E0,5.1954392E-2,7E0,7.75E-1,3.838384E-1,4.866913E8,7E0,1.7619047E1,8E0,4.866913E8,6.98625E1,1.8489893E4,2E0,5E0,3.3333334E-1,6E-1,1.0334433E4,3.117292E-2,-9.1472274E-4,1.6863496E-3,3E0,2E-1,4E0,9.444444E-1,1.7619047E1,1E0,8.25E-1,9.166667E-1,1.2E1,1E0,1.4E1,6E0,1.4E1,5.3333336E-1,1.3009304E-2,5.3333336E-1,1.7619047E1,1.8242218E-2,-4.2979725E-4,1.3507762E-3,2.9938722E-2,-3.2008696E-2,5.57573E-3,-5.415031E-2,3.7287507E-2,1.5223197E-3,1.0144492E-2,-8.8563815E-2,2.3239601E-2,8.370343E-2,-2.1554071E-2,2.6775157E-2,-8.996315E-2,4.4552065E-2,-1.6544642E-2,1.8010719E-2,-4.722307E-2,6.3438034E-3,3.450918E-2,-4.7413837E-3,-2.9987624E-2,2.6068578E-3,-2.6824532E-2,1.0717487E-2,-7.598849E-2,-2.9148713E-2,5.059746E-3,-5.5995025E-3,9.999612E-3,1.930833E-3],"split_indices":[3,19,22,19,1,12,0,15,10,1,0,19,0,19,0,0,0,8,15,6,2,0,0,0,0,16,10,16,2,0,6,10,2,19,5,19,15,19,1,0,1,0,0,0,0,0,0,0,0,0,0,0,0,0,0,0,0,0,0,0,0,0,0,0,0,0,0,0,0,0,0,0,0,0,0],"split_type":[0,0,0,0,0,0,0,0,0,0,0,0,0,0,0,0,0,0,0,0,0,0,0,0,0,0,0,0,0,0,0,0,0,0,0,0,0,0,0,0,0,0,0,0,0,0,0,0,0,0,0,0,0,0,0,0,0,0,0,0,0,0,0,0,0,0,0,0,0,0,0,0,0,0,0],"sum_hessian":[1.4477E4,1.4465E4,1.2E1,1.4261E4,2.04E2,1.1E1,1E0,1.419E4,7.1E1,1.85E2,1.9E1,9E0,2E0,1.4024E4,1.66E2,5.5E1,1.6E1,9.9E1,8.6E1,1.3E1,6E0,7E0,2E0,1E0,1E0,1.3956E4,6.8E1,1.39E2,2.7E1,1.5E1,4E1,9E0,7E0,5.7E1,4.2E1,3.9E1,4.7E1,5E0,8E0,2E0,4E0,5E0,2E0,1.1075E4,2.881E3,2.2E1,4.6E1,1.32E2,7E0,2.1E1,6E0,1.4E1,1E0,3.7E1,3E0,2E0,7E0,5E0,2E0,3.1E1,2.6E1,2.6E1,1.6E1,2.5E1,1.4E1,1E1,3.7E1,3E0,2E0,4E0,4E0,1E0,3E0,4E0,1E0],"tree_param":{"num_deleted":"0","num_feature":"24","num_nodes":"75","size_leaf_vector":"1"}},{"base_weights":[-8.2567385E-5,2.9553615E-3,-1.4809562E-3,3.1475846E-2,2.1054496E-3,-3.414367E-3,3.550102E-3,4.4858254E-2,-6.835024E-2,2.2401002E-3,-1.9747518E-1,-4.7047157E-3,1.6169935E-2,8.556127E-3,-1.3866868E-2,1.236497E-1,2.6334608E-2,4.9391855E-2,-1.3478169E-1,1.7867329E-3,7.346828E-2,-4.12927E-3,-8.473456E-2,-4.18586E-3,-6.9903664E-2,1.9431252E-2,-1.8973935E-1,1.0774982E-2,-3.4964506E-2,-2.8494008E-2,4.1460916E-2,5.3780974E-4,1.2936705E-1,3.7514247E-2,-4.7928795E-2,-2.8881016E-1,-2.4126172E-3,2.0130225E-3,-9.925531E-2,-7.49512E-3,8.3483696E-2,1.1274976E-3,-7.9215085E-3,-2.7710074E-1,-3.755721E-2,-2.9126067E-2,3.300456E-2,2.5211254E-2,-2.4937508E-1,2.1833556E-2,3.2078617E-3,8.8532105E-2,-6.361119E-2,-1.0641438E-2,-9.92492E-2,3.097883E-2,1.9613013E-1,2.3279916E-2,4.65764E-2,8.264998E-3,2.2549363E-2,-2.7397735E-2,3.8150925E-2,-1.109711E-1,-4.673625E-2,-1.4164507E-2,1.6258063E-2,-9.419057E-3,9.15956E-4,7.0565795E-3,-7.7024344E-3,1.853363E-2,3.295897E-2,-1.9860917E-3,1.5791762E-3,4.565954E-3,-3.178572E-3,-1.1595412E-1,-7.136464E-4,6.594987E-3,-3.571082E-2,-7.103653E-2,-5.964351E-3,-3.5828974E-2,1.0686177E-2,-9.56776E-2,-4.0460587E-2,5.3592864E-3,3.5966054E-2,2.5736128E-3,-1.6755017E-2,3.250802E-2,-4.3229867E-2,-4.0292628E-2,-2.2565549E-4,1.3017002E-3,-2.0623464E-2,1.0597235E-2,-4.22968E-2,1.13978665E-2,-2.690389E-2,1.1481739E-1,2.2885539E-3],"categories":[],"categories_nodes":[],"categories_segments":[],"categories_sizes":[],"default_left":[0,0,0,0,0,0,0,0,0,0,0,0,0,0,0,0,0,0,0,0,0,0,0,0,0,0,0,0,0,0,0,0,0,0,0,0,0,0,0,0,0,0,0,0,0,0,0,0,0,0,0,0,0,0,0,0,0,0,0,0,0,0,0,0,0,0,0,0,0,0,0,0,0,0,0,0,0,0,0,0,0,0,0,0,0,0,0,0,0,0,0,0,0,0,0,0,0,0,0,0,0,0,0],"id":14,"left_children":[1,3,5,7,9,11,13,15,17,19,21,23,25,27,29,31,33,-1,35,37,39,-1,-1,41,43,45,47,49,51,53,55,-1,57,59,61,63,65,67,-1,69,71,73,75,77,79,81,83,-1,85,87,89,91,93,95,97,99,101,-1,-1,-1,-1,-1,-1,-1,-1,-1,-1,-1,-1,-1,-1,-1,-1,-1,-1,-1,-1,-1,-1,-1,-1,-1,-1,-1,-1,-1,-1,-1,-1,-1,-1,-1,-1,-1,-1,-1,-1,-1,-1,-1,-1,-1,-1],"loss_changes":[6.1509904E-2,1.1056462E-1,9.645635E-2,1.7940666E-1,1.19573176E-1,1.810892E-1,2.4015212E-1,1.675058E-1,2.698359E-1,1.429569E-1,4.2943917E-2,2.2707108E-1,3.01177E-1,2.069314E-1,4.9889308E-1,1.5095472E-2,8.150086E-2,0E0,2.6435506E-1,3.321658E-1,2.3330435E-2,0E0,0E0,1.3238084E-1,3.4480366E-1,2.8898075E-1,1.3524503E-1,1.703056E-1,3.7355947E-1,6.141037E-1,2.0306617E-1,0E0,1.6095042E-2,2.9442407E-2,1.1039761E-1,7.0972443E-3,2.2847485E-2,1.5307307E-1,0E0,2.8594383E-3,7.5269192E-3,8.829556E-2,2.4245887E-1,2.0948756E-1,2.3062749E-1,1.7959484E-1,1.4063463E-1,0E0,4.770696E-3,3.1972668E-1,3.8428032E-1,1.0786685E-1,3.7763715E-1,3.3976015E-1,5.5545694E-1,1.06656395E-1,2.784673E-1,0E0,0E0,0E0,0E0,0E0,0E0,0E0,0E0,0E0,0E0,0E0,0E0,0E0,0E0,0E0,0E0,0E0,0E0,0E0,0E0,0E0,0E0,0E0,0E0,0E0,0E0,0E0,0E0,0E0,0E0,0E0,0E0,0E0,0E0,0E0,0E0,0E0,0E0,0E0,0E0,0E0,0E0,0E0,0E0,0E0,0E0],"parents":[2147483647,0,0,1,1,2,2,3,3,4,4,5,5,6,6,7,7,8,8,9,9,10,10,11,11,12,12,13,13,14,14,15,15,16,16,18,18,19,19,20,20,23,23,24,24,25,25,26,26,27,27,28,28,29,29,30,30,32,32,33,33,34,34,35,35,36,36,37,37,39,39,40,40,41,41,42,42,43,43,44,44,45,45,46,46,48,48,49,49,50,50,51,51,52,52,53,53,54,54,55,55,56,56],"right_children":[2,4,6,8,10,12,14,16,18,20,22,24,26,28,30,32,34,-1,36,38,40,-1,-1,42,44,46,48,50,52,54,56,-1,58,60,62,64,66,68,-1,70,72,74,76,78,80,82,84,-1,86,88,90,92,94,96,98,100,102,-1,-1,-1,-1,-1,-1,-1,-1,-1,-1,-1,-1,-1,-1,-1,-1,-1,-1,-1,-1,-1,-1,-1,-1,-1,-1,-1,-1,-1,-1,-1,-1,-1,-1,-1,-1,-1,-1,-1,-1,-1,-1,-1,-1,-1,-1],"split_conditions":[1E0,1E0,6.126215E4,2E0,9E0,9.6E-1,1E0,3.75E-1,8.143333E2,4.7619048E-1,4.448774E4,9.5555556E-1,2E0,7E0,4.2028984E-1,1.7619047E1,1E0,4.9391855E-2,2.4107703E4,4.6666667E-1,1.7619047E1,-4.12927E-3,-8.473456E-2,3.4210527E-1,1E0,1E0,3.2190393E4,3E0,-1E0,3E0,9.7727275E-1,5.3780974E-4,2E0,2E0,8.918919E-1,1E-1,1E0,5E-1,-9.925531E-2,1E0,3.125E-1,3.75E-1,4.5E-1,3.902439E-1,2E0,9.659463E3,3.4210527E-1,2.5211254E-2,3.3618695E4,2.533016E9,1.2224787E9,1.4E1,1E0,9.4285715E-1,1E0,3.2759168E9,4.5299146E-1,2.3279916E-2,4.65764E-2,8.264998E-3,2.2549363E-2,-2.7397735E-2,3.8150925E-2,-1.109711E-1,-4.673625E-2,-1.4164507E-2,1.6258063E-2,-9.419057E-3,9.15956E-4,7.0565795E-3,-7.7024344E-3,1.853363E-2,3.295897E-2,-1.9860917E-3,1.5791762E-3,4.565954E-3,-3.178572E-3,-1.1595412E-1,-7.136464E-4,6.594987E-3,-3.571082E-2,-7.103653E-2,-5.964351E-3,-3.5828974E-2,1.0686177E-2,-9.56776E-2,-4.0460587E-2,5.3592864E-3,3.5966054E-2,2.5736128E-3,-1.6755017E-2,3.250802E-2,-4.3229867E-2,-4.0292628E-2,-2.2565549E-4,1.3017002E-3,-2.0623464E-2,1.0597235E-2,-4.22968E-2,1.13978665E-2,-2.690389E-2,1.1481739E-1,2.2885539E-3],"split_indices":[4,14,0,21,15,2,17,10,0,1,0,2,17,19,1,0,22,0,0,1,0,0,0,2,16,19,0,23,9,3,2,0,3,19,2,10,13,10,0,3,11,10,10,1,21,0,1,0,0,0,0,15,5,2,15,0,1,0,0,0,0,0,0,0,0,0,0,0,0,0,0,0,0,0,0,0,0,0,0,0,0,0,0,0,0,0,0,0,0,0,0,0,0,0,0,0,0,0,0,0,0,0,0],"split_type":[0,0,0,0,0,0,0,0,0,0,0,0,0,0,0,0,0,0,0,0,0,0,0,0,0,0,0,0,0,0,0,0,0,0,0,0,0,0,0,0,0,0,0,0,0,0,0,0,0,0,0,0,0,0,0,0,0,0,0,0,0,0,0,0,0,0,0,0,0,0,0,0,0,0,0,0,0,0,0,0,0,0,0,0,0,0,0,0,0,0,0,0,0,0,0,0,0,0,0,0,0,0,0],"sum_hessian":[1.4477E4,4.563E3,9.914E3,1.31E2,4.432E3,7.162E3,2.752E3,1.16E2,1.5E1,4.43E3,2E0,6.72E3,4.42E2,2.138E3,6.14E2,2.1E1,9.5E1,3E0,1.2E1,4.403E3,2.7E1,1E0,1E0,6.668E3,5.2E1,4.36E2,6E0,2.035E3,1.03E2,4.86E2,1.28E2,1E0,2E1,8.3E1,1.2E1,5E0,7E0,4.401E3,2E0,3E0,2.4E1,2.753E3,3.915E3,6E0,4.6E1,9.5E1,3.41E2,1E0,5E0,8.26E2,1.209E3,1.9E1,8.4E1,3.89E2,9.7E1,1.21E2,7E0,8E0,1.2E1,6.7E1,1.6E1,1E1,2E0,2E0,3E0,4E0,3E0,1.32E2,4.269E3,1E0,2E0,1.5E1,9E0,9.58E2,1.795E3,4.05E2,3.51E3,4E0,2E0,2.7E1,1.9E1,3E0,9.2E1,5E0,3.36E2,2E0,3E0,7.95E2,3.1E1,1.109E3,1E2,1.8E1,1E0,3.9E1,4.5E1,3.1E2,7.9E1,2.3E1,7.4E1,1.15E2,6E0,3E0,4E0],"tree_param":{"num_deleted":"0","num_feature":"24","num_nodes":"103","size_leaf_vector":"1"}},{"base_weights":[-9.034764E-5,-1.4915413E-4,6.535465E-2,-1.1232734E-4,-8.888299E-2,4.6101347E-2,4.4459146E-2,-3.7736798E-4,1.2442466E-2,-4.912555E-3,-7.631028E-2,5.436789E-2,3.1790931E-3,-2.5140744E-4,-8.9437805E-2,1.3577592E-2,-4.8873775E-2,5.4604188E-3,-1.4605255E-2,7.871873E-3,6.8746835E-2,-4.7959687E-4,1.9101888E-3,-3.0870704E-4,5.3741593E-2,4.5714796E-2,-2.041731E-1,7.4159354E-2,1.1650649E-2,5.401674E-3,2.2588193E-2,6.9199878E-6,-4.081439E-3,-2.0420946E-2,3.1267446E-2,5.8176402E-2,2.3101768E-3,-9.414601E-3,-8.952832E-2,2.6238225E-2,5.5208984E-3,3.1283486E-3,2.8942615E-2],"categories":[],"categories_nodes":[],"categories_segments":[],"categories_sizes":[],"default_left":[0,0,0,0,0,0,0,0,0,0,0,0,0,0,0,0,0,0,0,0,0,0,0,0,0,0,0,0,0,0,0,0,0,0,0,0,0,0,0,0,0,0,0],"id":15,"left_children":[1,3,5,7,9,11,-1,13,15,17,-1,19,21,23,25,27,-1,-1,-1,-1,29,-1,-1,31,33,35,37,39,41,-1,-1,-1,-1,-1,-1,-1,-1,-1,-1,-1,-1,-1,-1],"loss_changes":[5.572964E-2,4.7261756E-2,1.3902798E-2,4.8124116E-2,8.212529E-2,4.084984E-3,0E0,1.588595E-1,6.1727952E-2,5.944796E-3,0E0,2.2406653E-3,5.5876422E-5,4.3774992E-2,3.194692E-1,3.3923797E-2,0E0,0E0,0E0,0E0,6.3754804E-4,0E0,0E0,6.2331885E-2,9.933606E-2,5.4846235E-2,1.697847E-1,5.0651953E-3,2.9074345E-2,0E0,0E0,0E0,0E0,0E0,0E0,0E0,0E0,0E0,0E0,0E0,0E0,0E0,0E0],"parents":[2147483647,0,0,1,1,2,2,3,3,4,4,5,5,7,7,8,8,9,9,11,11,12,12,13,13,14,14,15,15,20,20,23,23,24,24,25,25,26,26,27,27,28,28],"right_children":[2,4,6,8,10,12,-1,14,16,18,-1,20,22,24,26,28,-1,-1,-1,-1,30,-1,-1,32,34,36,38,40,42,-1,-1,-1,-1,-1,-1,-1,-1,-1,-1,-1,-1,-1,-1],"split_conditions":[7E0,5E0,1E0,1E1,6.818182E-1,1E0,4.4459146E-2,6.5384614E-1,9.756098E-1,3.4814814E-1,-7.631028E-2,3.125E-2,1.7619047E1,1E0,4.4444445E-1,1.4591146E4,-4.8873775E-2,5.4604188E-3,-1.4605255E-2,7.871873E-3,2.5E-1,-4.7959687E-4,1.9101888E-3,9.736842E-1,6.451613E-2,1E0,2E0,6.5384614E-1,9.72973E-1,5.401674E-3,2.2588193E-2,6.9199878E-6,-4.081439E-3,-2.0420946E-2,3.1267446E-2,5.8176402E-2,2.3101768E-3,-9.414601E-3,-8.952832E-2,2.6238225E-2,5.5208984E-3,3.1283486E-3,2.8942615E-2],"split_indices":[3,5,22,14,2,12,0,11,2,1,0,11,0,2,2,0,0,0,0,0,6,0,0,2,11,5,19,11,2,0,0,0,0,0,0,0,0,0,0,0,0,0,0],"split_type":[0,0,0,0,0,0,0,0,0,0,0,0,0,0,0,0,0,0,0,0,0,0,0,0,0,0,0,0,0,0,0,0,0,0,0,0,0,0,0,0,0,0,0],"sum_hessian":[1.4477E4,1.4465E4,1.2E1,1.446E4,5E0,1.1E1,1E0,1.4162E4,2.98E2,4E0,1E0,9E0,2E0,1.4143E4,1.9E1,2.97E2,1E0,3E0,1E0,4E0,5E0,1E0,1E0,1.4129E4,1.4E1,9E0,1E1,8E0,2.89E2,1E0,4E0,1.3786E4,3.43E2,4E0,1E1,1E0,8E0,4E0,6E0,6E0,2E0,2.86E2,3E0],"tree_param":{"num_deleted":"0","num_feature":"24","num_nodes":"43","size_leaf_vector":"1"}},{"base_weights":[-6.464926E-5,-1.855602E-4,2.2850417E-2,-2.929639E-4,2.5931247E-2,6.5187686E-3,5.5906225E-2,-3.6970512E-5,-2.1765895E-2,-3.2981116E-2,1.2651028E-1,-2.4747416E-2,2.5270432E-2,7.326505E-2,-2.8182084E-2,-1.8900642E-4,3.8303886E-2,-8.164679E-2,4.7486354E-2,-1.6882643E-1,3.6210045E-2,1.8554391E-1,-1.1131285E-1,-1.07239425E-1,9.899215E-3,4.8826795E-2,1.4402348E-2,1.5745103E-2,8.197698E-2,5.6860287E-2,-3.1149128E-2,-1.2814863E-4,-6.622857E-2,8.00876E-2,-9.27678E-2,-1.9415215E-2,-2.4516155E-1,-6.6801906E-4,1.2616076E-1,-3.8408756E-1,-3.0478425E-2,-4.567735E-2,1.5202716E-1,1.6486717E-2,5.6997865E-2,4.5129657E-2,-1.0078609E-1,-4.468172E-2,-1.5893439E-2,2.6005456E-2,-4.0894315E-2,1.7302487E-2,2.1135822E-2,1.7887136E-2,-2.4172782E-3,1.5384144E-2,-1.3629154E-2,2.6045922E-2,8.646984E-3,2.125353E-2,4.3336004E-3,-4.8696442E-4,7.780969E-4,2.1042705E-2,-3.4246225E-2,-1.3405772E-2,4.0693693E-2,1.1279922E-2,-1.2842597E-1,8.327548E-3,-6.5250844E-2,3.305097E-2,-8.425498E-2,-5.9243765E-2,1.6041528E-2,4.540673E-2,2.4471208E-2,1.6215868E-2,-1.5214078E-1,4.472048E-2,-8.765365E-2,-9.162059E-2,1.1325467E-2,1.5622497E-2,5.0535798E-2,9.913981E-4,-8.143446E-3,1.0831293E-2,-1.2762282E-2,-1.7893363E-2,2.3034543E-3,6.558538E-4,8.017094E-3,4.4664363E-3,1.1230267E-2,3.4569295E-3,-2.6349442E-3],"categories":[],"categories_nodes":[],"categories_segments":[],"categories_sizes":[],"default_left":[0,0,0,0,0,0,0,0,0,0,0,0,0,0,0,0,0,0,0,0,0,0,0,0,0,0,0,0,0,0,0,0,0,0,0,0,0,0,0,0,0,0,0,0,0,0,0,0,0,0,0,0,0,0,0,0,0,0,0,0,0,0,0,0,0,0,0,0,0,0,0,0,0,0,0,0,0,0,0,0,0,0,0,0,0,0,0,0,0,0,0,0,0,0,0,0,0],"id":16,"left_children":[1,3,5,7,9,11,13,15,17,19,21,23,25,27,29,31,33,35,37,39,41,43,45,47,49,51,53,55,57,59,-1,61,63,65,67,69,71,73,75,77,79,81,83,-1,-1,-1,-1,-1,85,87,89,-1,91,93,95,-1,-1,-1,-1,-1,-1,-1,-1,-1,-1,-1,-1,-1,-1,-1,-1,-1,-1,-1,-1,-1,-1,-1,-1,-1,-1,-1,-1,-1,-1,-1,-1,-1,-1,-1,-1,-1,-1,-1,-1,-1,-1],"loss_changes":[4.011818E-2,4.0408608E-2,4.0664602E-2,7.885264E-2,3.5376802E-1,3.1112613E-2,3.8556628E-2,8.264762E-2,7.0470095E-1,3.6328647E-1,3.2952386E-1,5.8222987E-2,7.7451933E-3,9.232558E-3,3.8070403E-2,5.6748133E-2,3.1412256E-1,9.212361E-1,2.9937708E-1,3.7544593E-1,2.5352716E-1,1.6450882E-5,3.4453124E-1,2.0487413E-2,1.33348685E-2,1.2311339E-3,1.4499468E-3,1.1025292E-2,2.130963E-3,7.561138E-4,0E0,5.7421725E-2,9.297043E-2,3.0414483E-1,6.2810147E-1,6.321208E-1,3.4797144E-1,5.433253E-1,2.1357208E-2,2.9697442E-1,4.6644154E-1,3.5822603E-1,9.287238E-3,0E0,0E0,0E0,0E0,0E0,7.377199E-4,9.842787E-3,4.100943E-3,0E0,3.651264E-4,6.151153E-4,5.449221E-4,0E0,0E0,0E0,0E0,0E0,0E0,0E0,0E0,0E0,0E0,0E0,0E0,0E0,0E0,0E0,0E0,0E0,0E0,0E0,0E0,0E0,0E0,0E0,0E0,0E0,0E0,0E0,0E0,0E0,0E0,0E0,0E0,0E0,0E0,0E0,0E0,0E0,0E0,0E0,0E0,0E0,0E0],"parents":[2147483647,0,0,1,1,2,2,3,3,4,4,5,5,6,6,7,7,8,8,9,9,10,10,11,11,12,12,13,13,14,14,15,15,16,16,17,17,18,18,19,19,20,20,21,21,22,22,23,23,24,24,25,25,26,26,27,27,28,28,29,29,31,31,32,32,33,33,34,34,35,35,36,36,37,37,38,38,39,39,40,40,41,41,42,42,48,48,49,49,50,50,52,52,53,53,54,54],"right_children":[2,4,6,8,10,12,14,16,18,20,22,24,26,28,30,32,34,36,38,40,42,44,46,48,50,52,54,56,58,60,-1,62,64,66,68,70,72,74,76,78,80,82,84,-1,-1,-1,-1,-1,86,88,90,-1,92,94,96,-1,-1,-1,-1,-1,-1,-1,-1,-1,-1,-1,-1,-1,-1,-1,-1,-1,-1,-1,-1,-1,-1,-1,-1,-1,-1,-1,-1,-1,-1,-1,-1,-1,-1,-1,-1,-1,-1,-1,-1,-1,-1],"split_conditions":[2E0,3.2759168E9,5.652174E-1,2.1938268E9,2.3333333E-1,2E0,4.0625E-1,1.956242E9,8.1578946E-1,3E0,5E0,1.5524955E4,1.8518518E-1,5.5555556E-2,2E0,8E0,4E0,2.3333333E-1,5E-1,3.4210527E-1,1E0,0E0,4.0625E-1,2.1875E-1,5.2380955E-1,1.8808623E4,1E0,1.6452088E4,4E0,1.8190412E4,-3.1149128E-2,3.6956522E-1,3E0,1.2903225E-1,9.354839E-1,7.777778E-1,1E0,1E0,3E0,2E-1,2E0,2.5E-1,3.4210527E-1,1.6486717E-2,5.6997865E-2,4.5129657E-2,-1.0078609E-1,-4.468172E-2,7.315278E3,4E0,6.8862234E4,1.7302487E-2,1.9651873E4,6.25E-2,2.6666668E-1,1.5384144E-2,-1.3629154E-2,2.6045922E-2,8.646984E-3,2.125353E-2,4.3336004E-3,-4.8696442E-4,7.780969E-4,2.1042705E-2,-3.4246225E-2,-1.3405772E-2,4.0693693E-2,1.1279922E-2,-1.2842597E-1,8.327548E-3,-6.5250844E-2,3.305097E-2,-8.425498E-2,-5.9243765E-2,1.6041528E-2,4.540673E-2,2.4471208E-2,1.6215868E-2,-1.5214078E-1,4.472048E-2,-8.765365E-2,-9.162059E-2,1.1325467E-2,1.5622497E-2,5.0535798E-2,9.913981E-4,-8.143446E-3,1.0831293E-2,-1.2762282E-2,-1.7893363E-2,2.3034543E-3,6.558538E-4,8.017094E-3,4.4664363E-3,1.1230267E-2,3.4569295E-3,-2.6349442E-3],"split_indices":[7,0,2,0,11,19,1,0,2,3,3,0,2,11,16,16,3,11,6,2,5,4,11,11,2,0,14,0,16,0,0,1,14,11,2,2,3,5,21,6,21,6,2,0,0,0,0,0,0,16,0,0,0,11,2,0,0,0,0,0,0,0,0,0,0,0,0,0,0,0,0,0,0,0,0,0,0,0,0,0,0,0,0,0,0,0,0,0,0,0,0,0,0,0,0,0,0],"split_type":[0,0,0,0,0,0,0,0,0,0,0,0,0,0,0,0,0,0,0,0,0,0,0,0,0,0,0,0,0,0,0,0,0,0,0,0,0,0,0,0,0,0,0,0,0,0,0,0,0,0,0,0,0,0,0,0,0,0,0,0,0,0,0,0,0,0,0,0,0,0,0,0,0,0,0,0,0,0,0,0,0,0,0,0,0,0,0,0,0,0,0,0,0,0,0,0,0],"sum_hessian":[1.4477E4,1.4402E4,7.5E1,1.4344E4,5.8E1,5.1E1,2.4E1,1.4176E4,1.68E2,3.7E1,2.1E1,1.9E1,3.2E1,2E1,4E0,1.4121E4,5.5E1,9E1,7.8E1,1.2E1,2.5E1,1.7E1,4E0,5E0,1.4E1,9E0,2.3E1,3E0,1.7E1,2E0,2E0,1.4109E4,1.2E1,4.2E1,1.3E1,6.6E1,2.4E1,4.9E1,2.9E1,4E0,8E0,1.5E1,1E1,1E0,1.6E1,2E0,2E0,3E0,2E0,1.1E1,3E0,6E0,3E0,1.9E1,4E0,2E0,1E0,1.5E1,2E0,1E0,1E0,9.107E3,5.002E3,3E0,9E0,1.3E1,2.9E1,1E1,3E0,5.4E1,1.2E1,2E0,2.2E1,1E1,3.9E1,1.7E1,1.2E1,1E0,3E0,5E0,3E0,3E0,1.2E1,2E0,8E0,1E0,1E0,1E1,1E0,2E0,1E0,1E0,2E0,1.8E1,1E0,1E0,3E0],"tree_param":{"num_deleted":"0","num_feature":"24","num_nodes":"97","size_leaf_vector":"1"}},{"base_weights":[-6.978999E-5,8.679303E-4,-3.8743617E-3,-4.0111074E-4,1.0288942E-2,-2.5596243E-1,-3.432139E-3,1.0768291E-4,-3.683655E-2,1.0969189E-2,-2.2628847E-1,-2.6677668E-2,-1.1997792E-1,-1.8770997E-1,-2.9140273E-3,7.410521E-4,-2.5582004E-2,-1.0317035E-2,-2.2966613E-1,5.9861345E-3,4.491055E-2,-1.865708E-2,-7.807734E-2,-2.3023412E-2,1.1018462E-2,2.7245533E-2,-1.22843064E-1,9.1579836E-4,-2.1331817E-2,-9.200527E-5,2.9983837E-2,2.6321637E-2,-6.0246214E-2,1.2202402E-2,-1.291542E-1,-4.5370066E-1,1.9886859E-2,3.2549594E-3,7.297595E-2,3.2809988E-2,1.1668553E-1,2.303958E-3,1.9051775E-2,-6.784687E-2,2.069339E-3,-3.7142012E-2,2.0635387E-2,2.9879413E-4,-3.181156E-3,-7.6922506E-2,9.593829E-3,-6.4616217E-3,2.2987476E-2,-2.6714046E-2,1.2321721E-2,2.1784645E-2,-4.8307055E-3,4.6070904E-2,-6.2829986E-2,-1.5661137E-1,1.3949535E-2,2.7322939E-2,-1.6584035E-2,1.4676794E-3,-1.9598762E-2,-8.336552E-3,3.9300628E-2,1.29677355E-2,-5.6736264E-2,2.3998298E-2,4.683337E-2,7.330683E-3,-3.965539E-3,3.0873196E-2,-3.4569908E-2,-4.442669E-5,6.534447E-3,-3.3904528E-3,-2.8984226E-2,-1.1868184E-2,2.3129046E-2],"categories":[],"categories_nodes":[],"categories_segments":[],"categories_sizes":[],"default_left":[0,0,0,0,0,0,0,0,0,0,0,0,0,0,0,0,0,0,0,0,0,0,0,0,0,0,0,0,0,0,0,0,0,0,0,0,0,0,0,0,0,0,0,0,0,0,0,0,0,0,0,0,0,0,0,0,0,0,0,0,0,0,0,0,0,0,0,0,0,0,0,0,0,0,0,0,0,0,0,0,0],"id":17,"left_children":[1,3,5,7,9,11,13,15,17,19,21,23,-1,25,27,29,31,33,35,37,39,-1,-1,-1,-1,41,-1,43,45,47,49,51,53,55,57,59,61,63,65,67,69,71,-1,73,75,77,79,-1,-1,-1,-1,-1,-1,-1,-1,-1,-1,-1,-1,-1,-1,-1,-1,-1,-1,-1,-1,-1,-1,-1,-1,-1,-1,-1,-1,-1,-1,-1,-1,-1,-1],"loss_changes":[5.1655427E-2,1.3888095E-1,3.182861E-1,1.8979724E-1,2.2440635E-1,1.5437463E-1,2.7242038E-1,1.6432407E-1,7.186688E-1,2.3245633E-1,6.1117113E-3,1.2342326E-2,0E0,3.9251652E-1,2.0119083E-1,2.4010395E-1,4.387911E-1,3.3609423E-1,9.59467E-1,2.1949852E-1,1.4903063E-1,0E0,0E0,0E0,0E0,4.3756412E-3,0E0,1.8749551E-1,3.265497E-1,1.09620266E-1,1.6422513E-1,2.375887E-1,4.2969072E-1,1.8242687E-1,4.8609883E-1,3.319137E-1,5.3194672E-2,1.3001825E-1,2.7844805E-1,3.5953602E-1,2.3676395E-2,1.6971483E-3,0E0,3.2742888E-1,1.01585895E-1,5.475417E-1,4.6188158E-1,0E0,0E0,0E0,0E0,0E0,0E0,0E0,0E0,0E0,0E0,0E0,0E0,0E0,0E0,0E0,0E0,0E0,0E0,0E0,0E0,0E0,0E0,0E0,0E0,0E0,0E0,0E0,0E0,0E0,0E0,0E0,0E0,0E0,0E0],"parents":[2147483647,0,0,1,1,2,2,3,3,4,4,5,5,6,6,7,7,8,8,9,9,10,10,11,11,13,13,14,14,15,15,16,16,17,17,18,18,19,19,20,20,25,25,27,27,28,28,29,29,30,30,31,31,32,32,33,33,34,34,35,35,36,36,37,37,38,38,39,39,40,40,41,41,43,43,44,44,45,45,46,46],"right_children":[2,4,6,8,10,12,14,16,18,20,22,24,-1,26,28,30,32,34,36,38,40,-1,-1,-1,-1,42,-1,44,46,48,50,52,54,56,58,60,62,64,66,68,70,72,-1,74,76,78,80,-1,-1,-1,-1,-1,-1,-1,-1,-1,-1,-1,-1,-1,-1,-1,-1,-1,-1,-1,-1,-1,-1,-1,-1,-1,-1,-1,-1,-1,-1,-1,-1,-1,-1],"split_conditions":[2E0,3.7777779E-1,2.25E-1,2E0,4E0,3E0,3.627451E-1,1.2224787E9,9.183673E-1,9.411765E-1,5.1994938E4,1.3419166E4,-1.1997792E-1,1E0,9.4285715E-1,2.13619E5,5.8064514E-1,2E0,1.2E-1,2E0,6.211716E8,-1.865708E-2,-7.807734E-2,-2.3023412E-2,1.1018462E-2,1.4060112E5,-1.22843064E-1,4.4914285E2,1E0,3E0,4.5454547E-2,4.6666667E-1,9.375E-1,0E0,-1E0,2E0,3.6036035E-1,7E0,1E0,3.412697E8,1E0,3.5772356E-1,1.9051775E-2,4E0,2.13619E5,1.8656998E5,0E0,2.9879413E-4,-3.181156E-3,-7.6922506E-2,9.593829E-3,-6.4616217E-3,2.2987476E-2,-2.6714046E-2,1.2321721E-2,2.1784645E-2,-4.8307055E-3,4.6070904E-2,-6.2829986E-2,-1.5661137E-1,1.3949535E-2,2.7322939E-2,-1.6584035E-2,1.4676794E-3,-1.9598762E-2,-8.336552E-3,3.9300628E-2,1.29677355E-2,-5.6736264E-2,2.3998298E-2,4.683337E-2,7.330683E-3,-3.965539E-3,3.0873196E-2,-3.4569908E-2,-4.442669E-5,6.534447E-3,-3.3904528E-3,-2.8984226E-2,-1.1868184E-2,2.3129046E-2],"split_indices":[15,1,10,22,9,3,1,0,2,2,0,0,0,9,2,0,2,20,11,20,0,0,0,0,0,0,0,0,22,3,2,2,2,9,9,3,1,16,15,0,17,1,0,19,0,0,9,0,0,0,0,0,0,0,0,0,0,0,0,0,0,0,0,0,0,0,0,0,0,0,0,0,0,0,0,0,0,0,0,0,0],"split_type":[0,0,0,0,0,0,0,0,0,0,0,0,0,0,0,0,0,0,0,0,0,0,0,0,0,0,0,0,0,0,0,0,0,0,0,0,0,0,0,0,0,0,0,0,0,0,0,0,0,0,0,0,0,0,0,0,0,0,0,0,0,0,0,0,0,0,0,0,0,0,0,0,0,0,0,0,0,0,0,0,0],"sum_hessian":[1.4477E4,1.1615E4,2.862E3,1.0237E4,1.378E3,4E0,2.858E3,1.0097E4,1.4E2,1.375E3,3E0,2E0,2E0,7E0,2.851E3,9.855E3,2.42E2,1.24E2,1.6E1,1.2E3,1.75E2,1E0,2E0,1E0,1E0,4E0,3E0,2.361E3,4.9E2,9.583E3,2.72E2,9.7E1,1.45E2,1.05E2,1.9E1,8E0,8E0,1.154E3,4.6E1,1.51E2,2.4E1,3E0,1E0,3.8E1,2.323E3,3.56E2,1.34E2,8.685E3,8.98E2,1E0,2.71E2,5E1,4.7E1,1.13E2,3.2E1,3.3E1,7.2E1,4E0,1.5E1,7E0,1E0,4E0,4E0,1.128E3,2.6E1,1.7E1,2.9E1,1.45E2,6E0,1.4E1,1E1,1E0,2E0,8E0,3E1,2.089E3,2.34E2,2.49E2,1.07E2,6.5E1,6.9E1],"tree_param":{"num_deleted":"0","num_feature":"24","num_nodes":"81","size_leaf_vector":"1"}}]},"name":"gbtree"},"learner_model_param":{"base_score":"8.8701487E-1","boost_from_average":"1","num_class":"0","num_feature":"24","num_target":"1"},"objective":{"name":"reg:squarederror","reg_loss_param":{"scale_pos_weight":"1"}}},"version":[3,0,5]}